kmWeight = {{0.00017619433861903837, 0.00035151553913413463, 
    1.5482024228984093*^-6, -0.000914188745241414, -0.00047973966912398134, 
    0.00023993849801077398, -0.000037001484097807895, 0.00044075235819583626, 
    -0.00027052841892499313, 0.0005165944068283549, 0.0007194989550873372, 
    -0.0001553405294955415, 0.00024017680974247447, -0.00003980607014604542, 
    -0.0005202530123747093, 0.000620823197496825, 0.0009008037998726424, 
    -0.0008262897105743602, 0.0009407351830573729, 0.0005909691843744209, 
    -0.0001336066677687939, -0.0007174221198868714, -0.0005721231444377243, 
    0.0007118258908994754, 0.0007629497490444807, 0.0006184991356448766, 
    0.0004131613806199687, 0.0002631745090570319, -0.0006279946418111721, 
    0.0009053253398908002, -0.0001124524953288711, -0.0003850002314312248, 
    0.0008530189992131182, 0.00035349842727336626, -0.0007449139958376773, 
    0.000903547555317249, 0.0006714213084681943, -0.004211842818582494, 
    -0.06824391853941236, 0.131370311790188, 0.2874872490164862, 
    0.11802683362011904, -0.003691821757825146, 0.06443440995061364, 
    0.2248458331914407, 0.1236732175432764, -0.0005419495489794, 
    -0.0003865632424920809, -0.0007937641590630006, -0.0009659274697492961, 
    0.00030814865616641965, 0.00022980635364864633, -0.00010423498450208698, 
    -0.00039365934855845486, 0.000056268157097006354, 0.000225884257282454, 
    0.00001766526436217629, -0.0007011028167431834, -0.000055988567531941886, 
    0.015441792945801867, 0.006061383915183696, -0.00194694099961216, 
    -0.0084506892586353, -0.030052396278799, -0.07159983391546604, 
    -0.16789958790612936, -0.18218878062903646, -0.11423196630147803, 
    -0.1917942463960274, -0.36953210373245077, -0.5309481223448128, 
    -0.6687051050814017, -0.6214907867835198, -0.5255213968761218, 
    -0.3346835206226337, -0.35593904761077777, -0.35687248201914007, 
    -0.10006835485406168, -0.0038342657451766065, -0.00004387819423495009, 
    -0.00016092896007377538, 0.00007800006530552547, 0.0002568191401730673, 
    0.0004891360558073629, 0.0004318640388561966, -0.00012904009230574028, 
    -0.0009329777368465219, 0.04197522270771825, -0.04110940276867224, 
    -0.24505910835309, -0.28912244914455065, -0.4652377252157321, 
    -0.17135273864910258, -0.21840344777100448, -0.41904478297036785, 
    -0.41906945393749157, -0.4312371175404752, 0.32971885344059443, 
    0.433072165126766, -0.031951487712087716, -0.15406341280079427, 
    -0.19697651590401272, -0.43115149977314515, -0.6873241401835845, 
    -0.3580521628027268, -0.5978150534314768, -0.4575587361855605, 
    -0.11111480801461354, -0.012737336293313445, 0.0022859489230896654, 
    -0.0005128169776588464, 0.0005630077667774088, -0.00019539084394199196, 
    -0.0008537741859551309, 0.0002735953786198073, 0.0002802965841642891, 
    -0.08880883529120136, -0.4783723233145369, -0.4500765122877475, 
    -0.3441332601926082, -0.054580926706855194, 0.41823411466834026, 
    0.3776743722190331, 0.9852386857533559, -0.3550920256343069, 
    -0.2331659028458275, -0.4231489231786147, 0.3043835725338413, 
    0.064648991686947, 0.5637418452382494, 0.04448972168900478, 
    -0.4756330057284157, -0.26799920756075296, -0.5359407167242631, 
    -0.3423409543111505, -0.4847093699728478, -0.5810516239660275, 
    -0.15270551780813468, -0.013618949555673348, -0.0006408500541685139, 
    0.0008149529203791517, 0.0007309355209004428, -0.0010583155637796217, 
    -0.0061536506828704365, -0.23877970060152076, -0.7380097537175667, 
    -0.4969327872497964, -0.221811431577666, 0.1560211963222985, 
    0.2194691029972744, 1.2065133931422223, 0.5968956228979526, 
    -0.3256523770207125, 0.5825471579381504, 0.8310656845191752, 
    0.28203316299197584, 0.014313356254253574, 0.4362868213999396, 
    0.6618261580448811, 0.12358749898940946, -0.745585988213298, 
    0.0019631739703835104, 0.4475654766838414, -0.3579334173101171, 
    -1.0284308667770081, -0.5719737928640768, -0.13191067396255543, 
    -0.038191488545415125, 0.00032086764834651565, 0.00026716822825851016, 
    -0.0011117949291173323, -0.0002861422612273809, -0.33662420640251944, 
    -0.3864184879155993, -0.09933960029336625, 0.41374486127751875, 
    -0.04180641201477919, -1.0454248550602252, 0.1994804755544382, 
    -0.0499860696783477, -0.6439963011489911, 1.1492276360443794, 
    0.5941554360281464, -0.42040814438186, -0.029001688443690863, 
    0.007691501377273323, 0.6957152845328269, 0.6067245354592964, 
    0.4567909664884651, 0.9098325036425697, 1.9525009216870777, 
    0.34205876198455365, -1.618906559857561, -1.3515440870906867, 
    -0.4643340456718032, -0.10092903714233101, -0.0007259179552342016, 
    -0.0009461104225438677, 0.00023097722180009773, -0.004672426694111157, 
    -0.3615253905439902, -0.05703572544609038, 0.3089588719741671, 
    0.17820403290056774, -0.8949126678224265, -0.23282162042794505, 
    0.23202889841500363, 0.3668736467885558, 0.15698044554061572, 
    1.4282646011684668, 0.42849591928904823, -0.095740315042347, 
    -0.530572529263253, 1.095073997032976, 0.647654781488201, 
    0.7191164065244772, 0.3660466537714535, -0.2168218162881895, 
    0.021100285053315564, 0.8773809366988635, -0.29445474407905964, 
    -1.4131646666246804, -0.6497442882409786, -0.0704194871859379, 
    0.05385708163241387, 0.0004549988688503539, 0.005721227048824952, 
    0.05442727679983887, -0.506540560863852, -0.34186250298939724, 
    -0.12594550996881815, -0.21887998523206437, -0.2169044253560088, 
    0.6060731711988887, 0.14941165654313557, 0.1546599115031417, 
    0.7196482293549373, -0.2855682090307754, 1.2172614648128177, 
    1.033216065671888, 1.6195679091864317, 1.0909775027878355, 
    0.7527404987449707, -0.5438115629104487, 0.6709500424665797, 
    0.4021855417257666, 0.7046987727281967, 1.5726305397790805, 
    0.6432181974930158, -1.662452238472521, -0.6016704812128979, 
    -0.06594718933412139, -0.00033186954873008377, -0.000183929854967805, 
    0.03561536819325979, 0.15668882961564862, -0.37944535653098627, 
    -0.07784479869932386, -0.2958338321188186, -0.6995829729057083, 
    -0.5672735925986518, -0.14059882796512035, 0.817571276542114, 
    -0.46951671975115716, 0.18693062907793737, 1.0964128176331214, 
    0.2165559689412676, -1.3900777818739214, 0.048533849013616466, 
    0.2946634456223362, 1.0900964628172634, 0.7743854392039877, 
    0.35378638825053105, -0.5237418630531884, -0.9800555204454099, 
    1.4283909269784156, 1.4576106720614623, -1.7586199932122941, 
    -0.6199367726718021, -0.0016129095815157653, 0.0007825101438424398, 
    0.00011595370904826684, 0.1741985529194649, 0.13797641590912663, 
    -0.27922875101820605, 0.7997160670468246, -0.23494633223561195, 
    -0.9022064030035799, -0.005888922357044419, 0.5197111880503761, 
    -0.5997280466752644, 1.1256547009427749, -0.3165420608638702, 
    0.9086003923876512, 0.3566335618045921, -0.7644185733855077, 
    -0.1898288494150276, 1.2039460745556656, 0.858247383171225, 
    0.04599078646730051, 0.2921918711686749, 0.2875237208704291, 
    0.4358613203833211, 1.4285068289855811, 1.3414874721401606, 
    -1.623424634437518, -0.5984123496179501, -0.00016831049608223217, 
    0.00023364305397672105, 0.03275803528924216, -0.0005139892470073954, 
    0.16322584442772517, -0.7178034844864274, -0.2025612964002383, 
    -0.2967275049378925, -0.386480243177766, -0.24487852963844992, 
    -0.6472053645041769, -0.3267626130226328, 0.25886005938757156, 
    -1.1335480109710687, 0.14334153505815472, -1.0893209004282285, 
    -1.7814278862978588, -1.342867057667465, 0.3274212471391881, 
    -0.6313230824846024, 0.36558666322111893, 0.48839215720753243, 
    1.2654607042525408, 0.873644693726772, 0.826472523756747, 
    1.006309596620847, -1.1136960742950663, -0.43659415464456647, 
    -0.0005165785738331357, -0.0005380575531544478, 0.00018449025652568098, 
    -0.0002792689056065482, 0.06398273498840547, -0.37043127738576437, 
    0.1836059535069922, 0.4304928311435546, -0.11726255283828985, 
    -0.5011305088734742, -0.14771336851892533, -0.09634195398058149, 
    -0.018630646489940547, 0.6957215663008868, -0.059159998337960186, 
    -1.705379924244779, -2.488476405201009, -1.4591154806007607, 
    -0.3131962829359904, -0.1185298271571803, 0.669469016264215, 
    0.5384368109670477, 0.7343220634461612, 1.214354980819052, 
    1.243457943286889, 2.067328521212243, -0.011065519229866818, 
    -0.26397840047305937, -0.0020226861702983545, -0.0008872172245859887, 
    -0.00022331074874709197, -0.00007904633701185029, 0.0586198269353539, 
    0.5566047100256597, 0.11446252139469885, 0.9823092073112, 
    0.5976084208283355, 0.5426690998721684, 0.02434946094312864, 
    0.8740253131174166, 0.15450677407927227, 0.42172224140242315, 
    -1.7604141515526304, -1.9174781128031677, -2.3452189194500677, 
    -1.4221461629506247, -0.6688384416038572, 0.008292241733952365, 
    -0.2750064273880807, -1.0664446129531593, -0.3084159649314487, 
    0.7147111574159406, 1.2176177070086105, 1.4799144268285171, 
    0.31028936456142625, -0.05864308703585548, -0.02324008525903648, 
    0.0003065974406493006, 0.0006558165535228548, -0.0008955902639143632, 
    -0.32082945827471704, 0.11133072504385098, 1.2155645847320395, 
    0.2493980381610525, 1.5344993795108919, 0.6582990027638929, 
    0.8206030056780632, 0.03959856427310502, 0.3670870612770373, 
    0.8114595938533115, -0.5184079459823245, -2.369128927822852, 
    -2.262327252460014, -2.364626876755227, -0.13582500288728871, 
    -0.24624413944640886, -0.4457563532036447, 0.12498764301868348, 
    0.28672623272916314, 0.2061791274123533, 1.3954383631778975, 
    1.587805293483174, 0.3199127257370377, -0.03012623194846795, 
    -0.000293553117188321, -0.0005075023670174933, -0.000921979360267948, 
    -0.003776574388534604, -0.5002902035792095, 0.3483194826135284, 
    1.5268986737317305, -0.9873969374525654, 0.976519830440842, 
    0.6954001565745636, 0.8848661381307734, 0.3149232554296261, 
    -0.21147679090979382, 0.5592222406136971, -1.8000049002811083, 
    -2.9658890390494226, -1.998967303621729, -1.3424314810747426, 
    -0.9589638336017559, -0.3858477284000495, -0.3004580380567302, 
    0.44923335182137203, -0.2266747073009903, 0.521995341550888, 
    1.201216433883906, 1.269589221534425, 0.20612199104050163, 
    -0.0839682311722269, -0.01446601138398056, -0.0009414740802513883, 
    0.00025579329048592674, -0.033422899889391705, -0.49859521157493314, 
    0.4385196453425708, 1.159332686367761, 0.3288085255842963, 
    0.17101789908079076, 1.2409281716049056, 0.363391464636426, 
    0.31409365532464995, 0.7092586452313256, -0.731630401064322, 
    -2.9937023188314797, -1.976032751114422, -0.4610273140135343, 
    -0.7418832897552758, -0.03388702852128615, 0.1353845950297313, 
    0.6941683609731322, 0.6652143125734191, 0.2376724386441462, 
    -0.2433523230509099, 0.48743312727207355, 0.27865055614280265, 
    -0.2714403676101274, -0.24672958375286919, -0.027788174703492548, 
    -0.0004450256901031178, -0.0002057023774517018, -0.0781567990382167, 
    -0.4082495220609867, 0.5219350108909943, 1.217232388560863, 
    0.5253112982721259, 0.25759463052160825, 0.0076103047299929455, 
    0.6648642223361861, 1.3216238104614029, 0.5072752586236603, 
    -0.5261647610385897, -2.2994616321073464, -1.4227820331436039, 
    -0.442523141461477, -0.14781297314617323, 0.5197233664554837, 
    -0.20334209689986496, 0.078761540234426, 0.6392420530326852, 
    -0.38589705289860887, 0.08275919023328589, 0.0006300397648397027, 
    0.368533639389209, -0.12383975822378655, -0.11142196946147757, 
    0.08059323797163738, 0.0006511730897766571, -0.0009385568394268385, 
    -0.040914387294282185, -0.49319318859848116, -0.13975547308987937, 
    0.2601627021705491, -0.34683486564341937, 0.47946092009904107, 
    0.7759702453548808, 1.3107292967393174, 1.1380292542032504, 
    0.18352108237916281, -0.5195607148723317, -1.2722448359304916, 
    -0.671871134645696, -0.11807287982213543, -0.3553438433336682, 
    -0.5409419557468388, -0.2016599463253642, -0.34525460765787885, 
    -0.8472092238833957, -0.1628293374420714, 0.900725034620453, 
    -0.06946439184947457, 0.18043732418932296, -0.18461233413897885, 
    -0.07796238909141331, -0.053076263587254764, -0.00024062941546366783, 
    0.029995118622901072, 0.017451123913577657, -0.29254608475620003, 
    -0.44155765899983884, 0.18711894566457885, 0.3325107176102262, 
    1.069667139773365, 0.758008430486251, 0.07186552841930949, 
    0.8036691333171146, 1.1016220146972693, 1.10965834251063, 
    -0.48409207908478763, -1.0497463881705127, -0.7454497993010227, 
    -0.6842486970984382, 0.00333884707809141, 0.02294740034082251, 
    -0.08532025383381228, 0.3483856878886388, 0.7136702287252534, 
    0.9973089595062642, 0.040660993046758395, 0.21315076002181946, 
    -0.2628075511836993, -0.1254418549919447, 0.0005087268280595576, 
    0.0005870045865841874, 0.07450493061463895, 0.001083306854295501, 
    -0.27938458782958525, 0.0031422405514089295, 0.8977782404697954, 
    0.6946254744738001, 0.20655552732517737, 0.7076745739028387, 
    0.16376785832436447, 0.7818291259754317, 0.8229202494296516, 
    1.8047912846589187, 0.47749110300562747, -0.4721562602772264, 
    -0.410282633084484, -0.53228261769304, -0.02908862943964194, 
    -0.402759985594991, -0.019011542947963856, -0.3538055060202172, 
    0.2501863496914994, 0.6191608816703107, -0.30612811788995486, 
    -0.19903516315005532, -0.1839626165123418, 0.00030973374062719165, 
    0.0006791150316012187, -0.00020413460800490805, -0.0009409357479143029, 
    -0.09685380861921772, -0.11277703768528653, -0.45870927596969846, 
    0.5264800838355652, 0.5619462182297543, -0.09790933460031344, 
    -0.23937636140235524, 0.4069869511126637, 0.711675617145381, 
    1.3463116818436387, 0.5465247912566704, -0.07534815752394403, 
    -0.06823277329000314, 0.19011263993452943, 0.2139267283537868, 
    -1.0558806024962453, -0.896132880167153, -1.1901499488708536, 
    -0.530546567298171, 0.07789245193312014, 0.18182231258682796, 
    -0.15622754181314377, -0.25775552247992345, -0.09192512867030334, 
    0.09797343633498816, -0.0002461559369731409, 0.00018091988874000984, 
    -0.0003632963368393211, -0.012577845952217339, -0.38061420276751157, 
    -1.3612980786839854, -0.13693504156770803, 0.46770240665265794, 
    0.08256793754871519, 0.5858961032101634, 0.33644300912740954, 
    -0.01471341122256859, 0.29422510642905403, 0.15213043115335934, 
    1.819584767627982, -0.06167202034184868, 0.06729288782329836, 
    -0.11791695999688505, 0.0692518418263519, -0.7187070025361267, 
    0.05623607459403189, -0.33745585458235744, -0.21223762458683704, 
    0.15869649763270954, -0.15741472259362016, -0.26964796235766253, 
    -0.1090901764230163, 0.010719294355906848, -0.0006223133182783049, 
    -0.0005599386448247807, -0.00048156281980786097, -6.0776177322939115*^-6, 
    -0.22647507921357773, -1.2683896236080636, -0.9879152133394078, 
    -0.4061588302639549, 0.27198481197062074, 0.5578204297145196, 
    0.8197268528422842, 0.9728029496279633, 0.8695832174413751, 
    0.23330047332287696, 0.5647099192144552, 0.4125990533191785, 
    0.03599182875618093, -0.1738030134132697, 0.5290542779543498, 
    -0.6988995083650866, -1.0342534512062915, -1.139457743226873, 
    -0.7386103021528508, -0.2792742676929488, -0.32745061902246453, 
    -0.22926659667551977, -0.09062229030886515, 0.0008060957786170158, 
    0.0002810366645102161, -0.00018374437984779732, -0.0006093857806090089, 
    0.00037826277698175365, -0.00027766155593509577, -0.2169155789306363, 
    -0.3925900968423279, -0.5810922697388412, -0.6397169898134702, 
    -0.6629848190972012, -0.18640435877914377, -0.17700264732897344, 
    -0.17719156212018175, 0.9296971026478223, 0.6305811272953059, 
    0.5068530696831594, -0.1793353755425116, -0.2788522588549519, 
    -0.41956601207847166, -1.1192583807975791, -1.1329743694244703, 
    -1.0960269646939762, -0.8645244912742446, -0.39940127561455735, 
    -0.1978248534693304, -0.020175668916152315, -0.008621825268035517, 
    0.0003702404277560853, 0.0004650043424761544, 0.00048235824821430155, 
    0.0004757808058100826, 0.00031313633321815304, 0.0006862872812459931, 
    0.0003530426930436482, -0.058972085670403074, -0.5557994906956436, 
    -0.9271384256287032, -1.1238435375360558, -1.3792749457839164, 
    -1.6413824541255164, -1.6379215065085302, -1.9847327302744218, 
    -1.4784652566876595, -1.869956451807504, -2.0718670818782123, 
    -1.430407096451571, -1.4751755875935264, -1.2740838621639905, 
    -0.6835841647494023, -0.7297007447671938, -0.7696783631373321, 
    -0.37502673157714395, -0.11394341892804623, -0.0005614338424930461, 
    0.0002764120087502069, 0.0008757176052928959, 0.00011130348223673588, 
    -0.000198777852318025, -0.00046509648797047297, -0.00021754227706747165, 
    0.0005563655864543782, -0.0000901607824489384, 0.0008095969502773882, 
    -0.11169572463185751, -0.2455782687273348, -0.3246328172201595, 
    -0.39208382472108877, -0.23666673307457847, -0.145578676053695, 
    -0.0912406406986485, -0.4233138544417415, -0.5379806605461059, 
    -0.42789947342420315, -0.228645328688763, -0.4278373382062576, 
    -0.23200271893815103, -0.03725009233592619, -0.2370274125777279, 
    -0.4228593436727009, -0.2882550049750351, -0.048910656513701724, 
    -0.0007789702762715868, -0.0008936743530883269, -0.0007746360613977233, 
    -0.00010592094343837974, -0.0006475670572237257, -0.0006403493802833323, 
    0.0003871267897517165, 0.0004252735696970611, 0.0005819416424009769, 
    0.0007165104435858262, 0.00013778753094531774, -0.000212837012614966, 
    -0.0005583566429283834, -0.000042706946868024547, 0.0007303914013060915, 
    0.0008755570603187923, 0.0008141705205543696, -0.028328790666651716, 
    -0.08330057657500894, -0.04516906500715063, 0.00008423256699849624, 
    -0.04208767253755446, -0.05732372929719759, -0.0017511109749439497, 
    0.00021314766028627117, -0.09550870016995727, -0.2602559102028138, 
    -0.05450421692493005, -0.0003826328212209341, 0.00037844396933412686, 
    -0.0001496295391276688, -0.000027239742417712893}, 
    {-0.00013563192313580932, 0.0003266388018819985, 0.0002731673243317732, 
    -0.0000577608907315957, -0.0004759813989222172, -0.0004380846328356134, 
    0.00031910598519890735, 0.00027304998958543186, 0.00005860368777330788, 
    -0.0004891084585772303, 0.00015666939647402582, -0.00012654866697090882, 
    -0.000988409904827024, -0.0002312120400583911, -0.0007990668334694113, 
    -0.00045636430266482496, -0.0003201005549761191, 0.0005741978995113827, 
    -0.0008577058941670775, -0.0008890481313521543, -0.000750230803221944, 
    -0.000023606399933400433, 0.00004741392752114588, 0.00028831965377436363, 
    0.0002759839766066242, -0.0008150575623104193, 0.00045714949747667835, 
    0.0009674288490525065, 0.0006541703184394189, -0.0004468377301408404, 
    -0.0002515789981403422, -0.0008914320353827373, -0.0009996524404680684, 
    -0.0008375027599204247, -0.00024917187118326427, -0.00021990765297581392, 
    -0.00002259150943436758, 0.0002245694704362473, -0.0008129566863239988, 
    -0.00010065910512391763, 0.0009512395359885897, 0.000048808250344776, 
    0.10037775022517899, 0.12971366737441678, -0.053924169643908414, 
    -0.03460395754498936, -0.0023948797144385903, 0.0009818380656088496, 
    0.00039424034611910166, 0.00019166567389410563, 0.0004419979812076718, 
    -0.00043470814926423835, 0.000941252079746816, 0.00043167840740224563, 
    -0.00040749843448426156, -0.00047300157325157535, -0.0008580299566730292, 
    0.0007409501541938168, -0.00026608011068371277, 0.0008708726504725326, 
    0.0007174720913299094, -0.001798053115506766, -0.00029079583224401036, 
    -0.0005550659700795526, -0.08262477810334179, -0.19308754492498825, 
    -0.11406193759387571, -0.19992546373516165, -0.15557711217298528, 
    0.4514138618165898, 0.5890000625039427, 1.0843184431585235, 
    0.6351401655609594, 0.15066382366893652, -0.05772016354363481, 
    0.0551371921882825, 0.016840886143781306, -0.016028703774158756, 
    -0.0005518067393668199, -0.0002529457677211445, 0.0007300209711986377, 
    0.00008297368815368178, -0.0004807713666492965, 0.0001268741852167338, 
    0.0009449115726298703, -0.00046782834193320093, -0.0005557127539791983, 
    0.00022185321155384027, -0.0004331726959683003, -0.02007519179457716, 
    -0.0002637387981832135, -0.004832644959395054, -0.1223322645501001, 
    -0.2819394151468471, -0.6166891209726529, -0.9770661813897399, 
    -0.14159031334532213, 0.16468323700537477, 0.012818739201399153, 
    0.6875629621553536, 0.6333162317336258, -0.1804120685695175, 
    -0.7519507810015377, -0.3230598367998118, -0.133079446612677, 
    -0.01923425096925551, -0.4139838410249069, -0.29622000512806723, 
    -0.26952522561085707, -0.09307705441837225, -0.11679124129549762, 
    -0.0008880096890871193, -0.0008270269996665134, -0.00024883083223414424, 
    -0.00014854498557932455, -0.000634013290624644, 0.03630164331860631, 
    0.08445244690934738, 0.14588972237825493, 0.13167350292829139, 
    0.27624345514427706, -0.3316810868430246, 0.002304365897618588, 
    -0.46933285990945345, 0.03766690194269872, 0.845947209989402, 
    0.5479285966045053, 0.2833765178112092, 0.15637576787688395, 
    -0.3014957565717113, -0.4145668753691452, 0.22013656085614303, 
    -0.2575949392622247, -0.23414989809652254, -0.4684796749631061, 
    -0.3585513305917107, -0.9050894706260703, -0.5410704192576248, 
    -0.05218098064585023, -0.03491308432901755, -0.0003716688858429328, 
    -8.631546918887179*^-6, -0.0009204636988185623, 0.0806385804253704, 
    0.09448853002677025, 0.39482324187098494, 0.4810586794089156, 
    0.23942588526235678, -0.5928334366688051, -0.5402413469798731, 
    -0.3969147404621489, -1.5243163209286512, -0.8778497357857508, 
    -0.0392251049031467, -0.5722515989877457, 0.5815954495251026, 
    -0.18394079480885075, -0.4147858578531173, 0.06566484870293975, 
    -0.17738020185083683, 0.16411403355733423, 0.7010308505229829, 
    0.5699252064010778, 0.23157803440218716, -0.28163131457062973, 
    -0.5862599757173459, -0.1420829498387224, -0.052078231074183655, 
    0.0006169467534599023, -0.00047560954884344144, -0.11328082211757198, 
    0.15667257963047218, 0.19366691943237008, 0.08512648977795263, 
    0.21775948720443164, -0.4483827834434925, -0.8327558316997705, 
    -0.8716335229161848, -0.0461238302962175, -0.11991844027420571, 
    -0.5089161077114727, -0.45949155596670793, -0.6286490344599969, 
    -0.6168837259361128, -0.9154919666246032, -1.1614377453952318, 
    0.07923400165805776, -0.6882790690249494, -0.11578466180493485, 
    0.12443316469790662, -0.33459187523631606, 0.2823443620751592, 
    -0.33210542746855415, -0.3597310932631696, -0.07396001679889579, 
    -0.03671991613891534, -0.0007749429319206737, -0.004440914509074321, 
    -0.25643902626868337, -0.05027070892560484, 0.13180370612955378, 
    -0.27382131519112757, -0.6956580036660741, -0.6864985722747138, 
    -1.4880162598835414, -0.9043399503080805, -0.22430926031113738, 
    -0.8761394363151215, 0.25727568836603304, -0.8721909748228001, 
    -0.0040351198233218215, -0.6977956411900481, -0.22058055319419703, 
    -0.5002599374499204, -0.6564971063505876, 0.13185214224683373, 
    0.31703873050162606, 0.1586679755440259, -0.30570868984204475, 
    -0.746553874740586, -1.3798932845735181, -0.6295346733298001, 
    -0.05083246425678098, -0.023617460290517076, -0.0004249913501984332, 
    -0.002733960570808481, -0.1772442722601736, 0.0003382318403098436, 
    0.11978807191258896, -0.350098430211647, -0.7690914231191028, 
    -0.3762249393047421, -0.8382723170905698, -0.7212475748857663, 
    -0.3016041097312191, -1.0735080448306655, -0.11247389643272701, 
    0.19465146298972968, 0.044772353965869476, -0.11511433918412464, 
    -0.5439566437326263, 0.6499317009361679, -0.5139140508948654, 
    -0.12816434525989356, -0.5631978593250521, -0.5777808990837316, 
    -1.1090064765912784, -1.723161808385443, -1.7160949025238152, 
    -0.5838311645831955, -0.016785070077185948, 0.0007313778794898219, 
    -0.0004287134786152393, -0.05617501230612909, -0.1148697286987322, 
    -0.0294068421632259, -0.1879729418931535, -0.8555223816931828, 
    -0.7366825541295127, -0.1532943345645529, -0.3607604619671128, 
    -0.7064529568533272, -0.3606819404485814, -0.4791905745815622, 
    -0.22076097374282047, -0.00021771307318177013, 0.1601307749792102, 
    0.851750603707058, 0.14730850827536382, -0.08815511485685436, 
    -0.5033232527093681, -0.8776412400519272, -0.8244681389068511, 
    -0.9133430845450368, -1.1941159283074556, -1.28501825751196, 
    -0.8369340757486415, -0.32713837731374457, -0.025677013104895226, 
    -0.0012307513288146786, -0.00014142524477014543, 0.026130601192856488, 
    -0.05830103204890932, -0.23230978089005794, -0.4504161036780404, 
    -0.8405831199559071, -1.0533587436454677, -0.6754760226325709, 
    -0.377157792066168, -0.5186973142800151, 0.07967895591911633, 
    0.3537872976098658, 0.023059924625604657, 0.635234486403107, 
    0.8080862592037161, 2.227387773423382, 1.0307764866447962, 
    0.3970108425035851, -0.6500391649671248, -0.46248135018811126, 
    -1.1331160858886842, -0.7659840061989949, -1.0490715767868792, 
    -0.9326639195110669, -0.7545316756025904, -0.12939493626221427, 
    -0.024012882349537724, 0.006737340236495562, -0.0006431532341864246, 
    0.0009427907453189601, -0.0006498392795438417, -0.13519773041063204, 
    -0.2729178437120672, -0.35162114344261325, -0.8777906627231011, 
    -0.7203845392302501, -0.36555070977396953, -0.3187976895749743, 
    -0.2626014513218556, -0.1803480428068532, -0.21676128907410855, 
    0.7350815418618952, 1.8053415022562649, 1.857864657928771, 
    0.7155398818357047, -0.5116063699440204, 0.3657330449763035, 
    -0.4543902265466273, -0.47562870782579425, -0.8889020554333623, 
    -0.7825682986820764, -0.3903415580702591, -0.4230545452883607, 
    -0.07203783205308172, -0.037263869750501555, 0.01174686713750762, 
    -0.0006221536540164455, -0.0008438973724983252, 0.00040570092189052935, 
    -0.019517109508747715, 0.041531812511626, -0.14645206027069624, 
    -0.04898661112901185, -0.17399674495724782, -0.442873665648552, 
    -0.228862228950458, -0.6497780225891263, -1.2099913415846602, 
    -0.11704855815451891, 0.8532078004698189, 2.5233474892507872, 
    1.2217862403124553, -0.3611001741917911, 0.19300154012336868, 
    0.23185700604638562, -0.7679422497882185, -0.27221540423446083, 
    -0.25925827068697965, -0.281375314948411, -0.03406956359805732, 
    -0.1989467878995203, -0.0900917904702708, -0.07975542254420266, 
    0.014584127072123644, 0.0032929120491133218, 0.0008553297747014137, 
    -0.0006158167413914265, 0.06602299313375166, 0.17690323288572635, 
    -0.07273916710866093, -0.05660177898846104, -0.33450837652926574, 
    0.2966073416964493, -0.09701460685913912, -1.70739555586277, 
    -1.5352833344737542, 0.6031444373486567, 0.8738123532563558, 
    1.184944357358531, 1.0918976900512747, 0.6536457391234891, 
    1.4473887246872303, -0.48027385691451013, -0.6802984902168295, 
    -0.2994842820326712, -0.304626351912652, -0.29635111413164394, 
    -0.19503736431330154, -0.25244982341999955, -0.13195957237424624, 
    -0.10795857311156298, 0.0007306820258333683, -0.00019066976859282055, 
    -0.000055911374668033774, 0.008850774507081723, 0.13248744145114752, 
    0.11667776405663083, -0.0671142127827152, -0.248147688167698, 
    -0.5331274982545602, 0.3901681565748628, -0.2805127471673568, 
    -1.8009836531215062, -1.582642168633067, 0.971544970336144, 
    1.0066523718216418, 1.7816854269755544, 0.9748791616020228, 
    0.6661302497919193, 0.00208704765065828, -1.475735400525299, 
    -1.334731096248509, -0.7453843561619338, -0.45320044092981243, 
    -0.3650826613936814, -0.2012888661561819, -0.12421324298123732, 
    -0.05864740526879327, 0.015622176956050466, 0.0001231252284942002, 
    -0.0008905563616394981, 0.0009987535590731773, 0.051757817112581046, 
    0.0671049884211978, 0.010385946941645503, -0.2452516919616641, 
    -0.434136585123157, -0.39345895129885583, 0.15533841398773396, 
    -0.19273452848388756, -1.1757033680558682, -0.3703266122395664, 
    0.9870077826704381, 1.390389319286602, 2.516796408652743, 
    0.11586626862126857, 1.5172853650620444, -1.5687438269795355, 
    -1.8902657156329947, -1.6114946298188004, -1.2248645478418285, 
    -0.6119064414699139, -0.4364894857215031, -0.19137192653708346, 
    -0.11589956403082748, -0.03773744235030394, -0.010853562439284824, 
    -0.007228474481010711, 0.0005388955854667412, 0.0009059027755511545, 
    0.0345849746372215, 0.0007496690226517696, -0.010972494269445937, 
    -0.2539123297764941, -0.5921413326004931, -0.5888894425176401, 
    -0.40831173547432875, 0.1855577301457827, 0.013079188665266243, 
    -0.40829583122762253, -0.07276110618674395, 1.056737699467184, 
    1.8614185416593703, -0.3727707905983047, 0.10546332509060347, 
    -2.4374202124740796, -1.7003751336399797, -1.2853556585388508, 
    -0.8600796401686854, -0.42221700996244377, -0.39874519595643165, 
    -0.4662762822653943, -0.08423821730894653, -0.3181896020650877, 
    -0.2411025772473966, -0.016773034040178963, -0.0007894458280568212, 
    -0.0009509901888546723, -0.0006038638138160803, -0.0006322690433923446, 
    -0.09282161943369856, -0.7047713152657804, -1.107444443611654, 
    -0.9384160357415222, -0.4519974531317012, -0.32765416346019893, 
    0.21680324979859952, -0.6244858585490882, 0.23720371547170577, 
    0.9441273176635298, 1.4983192370377305, 0.10673851558491844, 
    -1.0327522961183184, -1.9435075502510453, -1.048267087862942, 
    -0.7455138869744237, -0.8010357299712746, -0.2942562759884914, 
    0.04079231290826877, -0.13121726851765034, -0.047955958943879835, 
    -0.4838301342925543, -0.033816176434500106, -0.00019217057981394295, 
    -0.000015946273574653673, 0.0009966004348373014, 0.0006016115990761616, 
    0.00044743397972311824, -0.3520322043122653, -1.1708546717960469, 
    -2.105647735573387, -1.2907358306617929, 0.11543103416574207, 
    -0.30786519861914, -0.6635889406769923, -0.7950097696414158, 
    0.01227620870547498, 0.17384790101674, 0.6685070628477683, 
    -0.6469794320844614, -1.5689854866519846, 0.139219360877993, 
    0.4616239249030349, -0.27750560587345835, -0.06346322714378042, 
    -0.09270024799500162, -0.12113343745354176, -0.05431384581726046, 
    0.18083312517712932, 0.14450018565062808, 0.06312842274692612, 
    0.0008033352525510004, 0.00023296095788758402, 0.0051080869966891864, 
    0.0008365258027905351, -0.0019512749024481401, -0.5666761055520021, 
    -1.819988338760249, -0.6661342089534182, 0.585219281037136, 
    -0.041369036299972836, 0.4376777206809391, 0.4548981048766745, 
    -0.4438222966734653, -0.7112470911239431, 0.05908321559465038, 
    -0.4712115208980575, 0.5080206023984175, 1.02004906712349, 
    0.002277537910202177, 0.25222530552685174, 0.5927485864142988, 
    0.032720651352198496, -0.19757368544690504, 0.0548706086015479, 
    0.3166768444835028, 0.4829856984533207, 0.482709509711824, 
    0.06264535271310258, 0.002605927817788832, 0.0006257609972831588, 
    0.000966274840428775, -0.0023416019240995044, 0.008564175111379569, 
    -0.278456279289867, -1.2956212949419463, 0.1569560536878557, 
    0.5621551474664283, 0.8496960184162211, 0.6279332450229081, 
    1.0515925555575727, 0.556350718535877, 0.16714719904332126, 
    -0.06036697832470841, -0.16997547708612723, -0.5233537454903259, 
    0.6775240495183709, 0.3895253691140862, 1.341426151817775, 
    1.303533712479571, 0.6439745468457848, 0.2787062197101221, 
    0.35836700978725416, 0.24289991339389017, 0.45905048734608267, 
    0.22920960932546477, 0.054272246475712084, 0.007205898414722747, 
    -0.00016261374270642835, -0.0005010297548805557, 0.011152065785074898, 
    0.3068413134034236, 0.3394779939172849, 1.2537023682952102, 
    1.550105823755347, 0.9940806119237385, 0.31637324369082775, 
    -0.014286492832291582, 1.1054597852398753, -0.042208372154101496, 
    -0.1798875740746555, -0.09255537458222161, 0.8286029500877917, 
    0.6810567952220449, -0.3844526023559019, -0.11380879671360601, 
    0.8618395996267354, 0.6338384919251561, 1.1328240493101482, 
    0.9004033074159821, -0.2596960503074873, -0.10376596676392424, 
    0.5253507194510579, 0.2990213185432413, -0.013615224148460451, 
    0.000971527702896078, 0.00009618637233116983, 0.00009212150422989538, 
    0.01124726241778526, 0.054919280072438924, 0.28141485189744636, 
    2.462210067781683, 1.6409657839376846, 0.07446806724559805, 
    -0.12469569564534057, -0.3517132060054011, -0.5598579485864826, 
    -0.8719102016377325, -1.8025875965193259, -0.935321897733351, 
    0.18815835139542422, 0.08666017197519417, -0.36731116372929895, 
    0.672580871794354, 1.0998311093140387, 0.747190763194957, 
    1.2347336943677398, 0.22088185495108384, -0.553330320525345, 
    -0.11532013521687827, 0.1495900605397034, 0.13496713679414057, 
    0.01268028094456565, 0.0002796545853526672, -0.0009589770804615139, 
    -0.0008798899793469044, -0.0005155335036722437, -0.23581853411885487, 
    -0.4543022500879543, 0.8540064994161057, 0.6866821722841591, 
    -0.2328346758263831, 0.1892797340265106, 0.5226303637288574, 
    -0.5002401282408548, -0.24535308943930487, 0.6332855931721719, 
    0.22891303124419357, -0.6664766791840464, 0.9590609852440143, 
    0.6375383119489304, 0.7751870191696983, -0.15194467966602718, 
    0.13099111010596998, 0.03335166217931289, -0.6097729260642386, 
    -0.5261443648191386, -0.43067437111321855, -0.06209239927238099, 
    -0.0034488656452656198, 0.07661234809518941, 0.000829942730534907, 
    0.000935536229958703, 0.0004268229215203083, 0.0003569033576520025, 
    -0.09891795905699265, -0.2572186916719036, -0.07891708187454989, 
    0.27523192419574877, -0.2558489538130357, -0.44396776423368917, 
    -0.2734279978601572, -0.6605042071614955, -0.33773316210122256, 
    -0.39517407810756067, -0.7675172338653201, -0.3628606249264733, 
    -0.13204151873157022, -1.3657412917092315, -0.17558348717003103, 
    -0.05446094394848882, 0.078785045958912, -0.12345395754397179, 
    -0.3121621005824805, -0.41775427098404455, -0.15777502257572995, 
    -0.03155901429907469, 0.07767914731595073, 0.014867966699116417, 
    -0.0009264973073429082, -0.0006085573295152901, 0.0006873076620118965, 
    -0.0002460530207541679, -0.000638199614823596, -0.1512879175670995, 
    -0.2748870988772122, -0.29201834350799455, -0.6708630506940069, 
    -0.3991610562701599, -0.6189258635754993, -1.611626542335476, 
    -1.2592604410176884, -0.5092249012184223, -0.5585710539446168, 
    -1.1389680778305509, -1.02280924197598, -1.2517503098952951, 
    -0.7894328846220314, -0.40849015353137963, -0.36042724771634976, 
    -0.11814130164868682, -0.01090737889736632, -0.005969737685669809, 
    -0.000047426800312934755, -0.00019138631495688115, 
    0.00031330963521702574, 0.00022260349109878255, 0.00041802221271030303, 
    0.0001887775062127269, -0.0004771020085929537, -0.0006586971354425836, 
    -0.0009629595480725077, -0.0020653237836432727, -0.0018088195108774167, 
    -0.041316100558396365, -0.08134720154413996, -0.07258054606968581, 
    -0.1023126100643063, -0.3292334039367535, -0.3243727453869651, 
    -0.4356876533700068, -0.5717689899827519, -0.4448279554930979, 
    -0.17696350339105948, -0.12826882186109587, -0.11664799431842154, 
    -0.17966123740208076, -0.11791482654930843, -0.029324175030952214, 
    -0.00011665540985380245, 0.0001149589258708527, 0.00018711136715694643, 
    -0.0008697332036627799, 0.0008879483306888465, 0.0008395458460991414, 
    -0.0008493117374566883, 0.0006896158271209219, -0.0005240886074894769, 
    -0.00017038724536354603, 0.0002808025992055295, -0.00011359500290941855, 
    -0.0009119123320322094, 0.0007877905498074327, 0.00035763111841387914, 
    -0.0009655410982703835, 0.0009803778330858774, -0.0005821775580187085, 
    -0.0009357387925764144, 0.0006874896963361601, 0.0008118490541793348, 
    -0.0007562539069790347, 0.00002490991542540738, -0.0005602615744104548, 
    -0.025302919057445066, -0.08254768797439316, -0.0005264741028878578, 
    0.0006772982302543539, 0.0009910174930797264, 0.00018136909030525594, 
    -0.00034010972380012, -0.0005665851579454463, -0.0005192296900655689, 
    0.0009745992993144843, 0.00022795193590862892}, {0.00023741501162135312, 
    -0.00021513318159482007, 0.0005491457242476606, -0.0009328070789731365, 
    -0.0006847036140634629, 0.0007636841872745619, -0.0003407883867189072, 
    -0.0009023591647161792, 0.00011034763196981958, -0.00034305095437134467, 
    -0.0006133927400329728, 0.00038512243814607964, 0.00031834589955767167, 
    0.0005159767350737828, -0.0007314703657075755, 0.0006686861572402803, 
    0.000945450192598658, -0.000275945893639197, 0.0008165499017020613, 
    -0.00009879544304180901, 0.00047064032901372645, -0.00014628423273141617, 
    -0.0004618294525077049, -0.0002300627672315392, -0.0005730324988715094, 
    -0.00046668734518373655, -0.0008755076580809545, -0.0005958937383697639, 
    0.00068724442071387, 0.000051904194321208616, -0.0006448540210370795, 
    0.0003274522876240888, 0.000864475445704051, 0.0006197106810958076, 
    -0.000029559611219001247, -0.0002797266479796545, -0.061845875757392615, 
    -0.16283071204830887, -0.16202502988297326, -0.08439377081449724, 
    -0.04804593526112892, -0.07420313363203296, 0.010805367410817298, 
    0.20668542566960488, 0.38861419718407725, -0.07320738337772727, 
    -0.1738123848035171, -0.08894768081960291, -0.006659016354677159, 
    -0.02231141745531536, -0.002343099679892169, -0.00026635800712075967, 
    0.000177232299377811, -0.0005485093924010708, -0.0005245599668146452, 
    -0.00035610820808111305, 0.0003713827262960688, -0.00012525952750155325, 
    -0.00024388855874460727, 0.0005719608220074901, 0.000575023645654858, 
    -0.002507717046518, -0.0569922720851418, -0.11340200213187698, 
    -0.046293906604888295, 0.5277602533728768, 0.18480284464463897, 
    0.35850308421789295, 0.4118490392241373, 0.28133345847683744, 
    0.33738155286652644, 0.5384805465730014, 0.46876469313847624, 
    0.138665343982873, 0.22768620335099646, 0.005574101777507586, 
    -0.06824663259957638, -0.18703322591194624, -0.1586414839188284, 
    -0.06734145273409105, 0.19885413759709178, 0.15212848473095986, 
    -0.00082617682220084, -0.000501588972078592, -0.0006973875552383005, 
    -0.00015198886816481395, 0.0004319636368345513, 0.0005496087527566766, 
    -0.01400082838636172, 0.03171678401152372, 0.031908989413307054, 
    0.039038973346259005, 0.2584505312761238, 1.5691205864817093, 
    1.201937254570167, 1.4184729292622411, 1.141283855124098, 
    1.863123456133689, 0.8874918281767055, 0.4429906269924416, 
    1.0445262896862708, 0.6359411172170267, -0.4575789812062545, 
    -0.5305576102793792, -0.368928232198416, 0.0026119876078107987, 
    -0.34746728954966893, -0.6343437383001979, -0.031526963609211874, 
    0.13684940356962852, -0.0007477048604818332, 0.00011697597658664061, 
    0.000563521600956384, -0.0006524890735038131, 0.0008071928306175093, 
    -0.03444080069295861, -0.2240890733539831, 0.23384075750567299, 
    0.9126629172183551, 0.6953627589689192, 1.2324286403766003, 
    1.5191195068784609, 0.4916726287666464, 0.43402035113150145, 
    1.0622255425347298, 0.8929517321062762, 1.1288619069176573, 
    0.3516331269909626, 0.6803155464839141, 0.27691022925159253, 
    0.14451870970356293, -0.6496306110644686, -0.6595788829468383, 
    -1.2182730590624433, -1.3507033815780627, -1.3146151696952253, 
    -0.6242800023378818, 0.03296413941662442, -0.00497781332927008, 
    -0.005409548132733714, 0.00026758596622180166, 0.0003524960934023309, 
    0.001169994593429211, 0.021650760843468314, 0.14445677332564527, 
    0.3047545777776338, 0.46207738205089066, 0.4308925297830458, 
    0.4624687046041333, -0.02694914495394133, 0.5230192763688336, 
    1.3556126676872904, 0.2907670456949075, 0.19410580585288773, 
    0.060876712050051525, 0.22581407672949128, 0.9578029466087787, 
    0.659485968121164, 0.1656878485554147, -0.6654089756734916, 
    0.237207192151168, -0.10028082741992528, -0.8517273830487482, 
    -1.2517883940384904, -0.9561568940105314, -0.11319355098592783, 
    -0.05574011989807141, -0.008553277890726435, -0.0005847192676676455, 
    0.00009004018360991504, -0.045084730677633335, 0.008378567641115327, 
    0.4245911949187708, 0.0778064342213433, 0.3552547133349806, 
    0.007030693362755653, -0.16773643247867995, 0.8700899664915582, 
    0.788222831045349, 0.030040437017252793, -0.023023162389427462, 
    0.2897356852449827, 0.1383904632480602, 0.39167287081700863, 
    0.6848801539985779, 0.059483770330240514, 0.18638819840348603, 
    -0.5583505337832246, -0.8595235902153284, -0.03690074426627113, 
    -0.9988082182053463, -2.3432150473178988, -0.9609053064597847, 
    -0.14910402318232885, -0.02501272153633257, -0.014301555134695004, 
    -0.0002825087265942829, 0.0007622684024079989, 0.2588277748148058, 
    0.1765287867258272, 0.9478346700587218, 0.12613181138160423, 
    0.8257252581918874, -0.39211736998549535, 0.8498841805944772, 
    -0.34221273831913523, -0.4098762705055165, 0.16702923355809168, 
    -0.35841050724219986, 1.2302639422734574, 0.517742959870398, 
    -0.9095242267751061, 0.5089723105167472, -1.385381042665315, 
    -0.14510460757573257, -0.13159258302072985, -1.214931552189862, 
    0.05945832479483072, 0.49014804545945617, -2.3828726953431056, 
    -1.478795979532517, -0.21180074760555886, -0.06065093591339051, 
    -0.010436902644857367, -0.0009176279468530608, 0.02742889862062949, 
    0.049196663114694866, -0.0645481289770882, 1.2477123884276364, 
    0.7555719708447084, 0.06929569367393655, 0.3868319167679586, 
    0.15005032046389066, -0.3348998380714772, 0.4036317094663907, 
    -0.11457614776462426, -0.3979205063287257, -0.3195384693576741, 
    -0.12822960717985343, -0.29583228856060906, -0.7117265203017846, 
    0.25742142643742244, -1.2011410483708047, 0.5553480402551324, 
    0.4480370218618504, -0.18529650649698554, -0.5326546676601683, 
    -0.24761810362146208, -1.9313742476174285, -0.4595243105920114, 
    -0.02723541637737802, -0.00008909968441879504, -0.0006742377462738789, 
    -0.02087920557626207, -0.1817996498753724, 0.014896976356779902, 
    0.4539214827807987, 1.5500471030413667, -0.7154761723748675, 
    0.14648469494540622, 0.14133459157654765, 0.24649322220071387, 
    0.6430087725192187, -0.47127355413908895, -0.3509920856742062, 
    0.422030594071113, 0.3716137746357821, 0.11658134113654334, 
    0.5706723184711463, -0.23096874603332262, 0.2677935617281102, 
    -0.0013713947567427544, 0.23832482179720677, -0.27610682400313913, 
    0.14422249461988706, -0.22984161089436322, -1.4919085510376142, 
    -0.35419077688742145, -0.005036879082600772, 0.0009283807997114187, 
    -0.0006925673459377063, -0.03533171404215819, -0.18717283786262542, 
    0.14576536906548365, -0.0954035983537367, 1.6342859081736478, 
    1.6248612218253702, -0.10366433148080743, -0.021925042550445483, 
    -0.531521602342639, -0.2223030087201398, 0.12300614841607403, 
    0.4048044858910848, -0.6274085335971674, 0.05220375088328314, 
    -0.29945313186878486, -0.16352533541625275, 0.8936517343009673, 
    -0.39513423722086966, -0.22241510451330274, 0.473431932853505, 
    -0.03778603019314117, -0.6690905369716675, -0.9530889335409679, 
    -1.3169805249954036, -0.20111884888841491, 0.08761788628311118, 
    0.00010361332265383696, -0.000538348202220245, 0.00011301177426025149, 
    -0.037832270427839994, -0.12278990894999758, -0.18433326426328894, 
    0.747439466311858, 0.31897918313927176, -1.0267899981809032, 
    -1.6626078904859696, -1.6447468193536408, -2.5838790204405626, 
    -2.363053631828126, -2.072968928409891, -2.6466327161537793, 
    -1.496651560207842, -1.601517956174381, -0.565574247476774, 
    -1.4968820871007982, -0.322009165211068, 0.9373008575474001, 
    -0.5537418205329054, 0.23899318836624966, -0.41202348608406286, 
    -0.6355432410396575, -0.3775638517037591, 0.40072294785339313, 
    0.12184179216900644, -0.0018561604346475887, -0.0007622460619773682, 
    0.0002463632618399916, -0.0000881166828512556, -0.5599511097703969, 
    -0.6782549498019862, -1.2475966493852204, -3.0792401241265828, 
    -3.4375404225982544, -2.2135812961569608, -1.6568517354215018, 
    -1.69167129101089, -1.8691685178033643, -1.4049437365659634, 
    -1.195146356154014, -1.536515652469202, -1.5349877336533126, 
    -0.728404461706106, -1.054472036897094, -1.3449154178883578, 
    0.8397740426801695, 0.3062734921838998, 0.11100318637014868, 
    -0.4399887349625623, -1.44828490097334, 0.46976918817749597, 
    1.2787770389156128, 0.7597264768460235, 0.08527701596910417, 
    -0.003309050210668285, 0.0003888319181766199, -0.0004425027426905236, 
    -0.38438710535895815, -2.072753506593338, -3.207219706304327, 
    -3.806763330581637, -2.4285077917270996, -1.2357081939743872, 
    -0.8567960140815285, -0.6651019816955945, 0.38752852762985246, 
    -0.16908279403868903, 0.6480217925413672, 0.15882187736711528, 
    -0.6569859436576757, -0.44046995119791077, -0.019578214838768232, 
    -0.8508810118652568, 0.004805123436034197, -0.12412534048267616, 
    0.04059693026594966, -0.12355766346619615, -0.20850179064220314, 
    1.9475417147903513, 2.460101254859355, 1.6996688324091473, 
    0.5085025966970912, 0.00004762774318245059, -0.06613065384776677, 
    -0.04633531703262095, -0.2801397133670062, -1.2636491795651257, 
    -2.4310884519314113, -0.8731171206657615, 0.9445141782591012, 
    0.09557813370127691, -0.11730322205874831, -0.45675863814226364, 
    0.6529004797826272, -0.1909996755502185, 0.6594711432837898, 
    -0.04696579604783687, -0.17263713223057586, -0.005689194220290651, 
    -0.6279301173485526, 0.43813268727446847, 0.24116651249592644, 
    -0.05537740954916268, -1.1227842441335467, -0.2332909162274733, 
    0.5071231434658023, 1.5167873381282968, 2.3214638694737695, 
    1.521686396875565, 0.04587079705044461, 0.000028539922847500016, 
    -0.15141898084497543, -0.08532584460789053, 0.3250966060522226, 
    0.4485195601305566, 1.4087457202599085, 1.2252733738002695, 
    -0.17524329036872874, 0.4223681790617263, 0.36417855552893585, 
    0.15442220415033994, 0.12708868699741646, -0.4544128525524559, 
    0.5824829321313243, 0.39882179125854483, 0.23010694787659872, 
    -0.4084166377822962, -1.1409267106029557, -0.7673872319060919, 
    -0.6346250156123503, -1.040978374274085, -0.5403162189803602, 
    -1.078502564599846, -0.8605846707394265, 1.5581116853548074, 
    2.482554683114348, 1.7175798221631178, 0.14859433028390534, 
    0.00005978980673196051, -0.07250169373484511, -0.15328589378494323, 
    0.9636984284415597, 0.7808361511471448, 1.0399216673415903, 
    0.7477174896413731, 0.12978127763372552, -0.9412706903929866, 
    1.162015958039716, 0.589053492838776, 0.6070678917023129, 
    0.7774633257790656, 1.074375603339778, 0.49013964465276944, 
    -0.3181402316517927, 0.42130345839211236, 1.4499312000245927, 
    0.0038566935760175535, 0.12349114004375113, -0.922985224335703, 
    1.275251323714926, 0.8606406447221908, 0.27326092910741423, 
    1.6837004175884198, 3.9144922142359264, 2.3781964944343255, 
    0.21382448707915733, -0.00010467362760491726, -0.024018312435516703, 
    -0.04684225100189382, 0.7954273461110719, 1.3917162976807798, 
    1.3318258262584788, 1.4048405380245856, 0.690954630861789, 
    0.009096492996850863, 0.5351294273011712, 0.8754888242939282, 
    1.0594571304502118, 0.7432654223550218, 1.0570450710079, 
    -0.0923155715051302, 0.8060680143585917, 0.1507879976232017, 
    -0.7027344401921288, 0.1109417703161541, 0.12227199947440251, 
    -0.2511902534141781, -0.06574798026328404, 0.2482030150476381, 
    -0.3178131184377755, 0.9506635000799591, 3.598847192507121, 
    1.1425210970776756, 0.08316084481377592, 0.0002584518114537806, 
    -0.0017436875863259598, -0.37925490700676273, 0.32039432717554434, 
    1.8093858680419979, 1.6541207281046513, 0.9921129532543265, 
    1.9716168724947896, 0.35900403257922775, 0.23371023116178066, 
    1.058653285751005, 0.6947255885526337, 1.2422216107450625, 
    0.5768681373116543, 0.8096951653246678, -0.007927267280902166, 
    0.4347363528611629, 1.1141970216136194, 0.2773619058088438, 
    0.6595452613448074, -0.12905921531126635, 0.020959309863668056, 
    0.46380267094587935, 1.7416011545358014, 2.885632590420298, 
    2.4067661400015448, 0.2926568478548111, 0.1423762355864035, 
    5.720312620631018*^-6, -0.0049496176910814125, -0.28120709109018516, 
    -0.2796489269569157, 0.9933421822469344, 0.07345668008405841, 
    0.0042965738251272995, 0.9199688947462965, 0.4277260017439572, 
    1.2208409292933657, 0.799383039895565, 0.12896318374751148, 
    0.22008265216994122, 1.5705667941987156, 0.38605879298488555, 
    0.4698228567451897, 0.8563602537427641, 1.0869559402704898, 
    0.8561185238661984, -0.3145447113458536, 0.7341248528794588, 
    0.7507636277650461, 1.6877225244868719, 0.5524068089879803, 
    0.9400238511924163, 1.9639141276394187, 0.5616091596804639, 
    0.05569702998881389, 0.00023343347930029163, -0.0005189329788051746, 
    0.12147364562000906, 0.2655678128065244, 1.3374836317355947, 
    0.513059439684795, 1.1316674843449965, 2.004469090602523, 
    0.9998942055022951, 0.8909641100093115, 0.742385573470963, 
    0.7476466242437007, 0.6373880396633228, 0.42231869555072155, 
    -0.0008470594792548275, 0.7154358174616641, 0.5769122607126224, 
    -0.9138119007777595, 0.35166460802483185, 0.882823173752223, 
    0.6947993017242501, 1.1482680557619749, 0.32941322929669875, 
    0.1689731975962733, 1.562762114515983, 1.1178795558308796, 
    0.22250501994041796, -0.007261825512715158, 0.0009484546709402892, 
    -0.00036816753024306785, 0.2707010580271122, 0.39341033041418916, 
    0.6481643790699297, 0.45975657498247813, 0.7766733366294354, 
    0.7303063261946956, -0.21370094466165881, 0.763249066278047, 
    0.1924124721496693, 0.13550556412255335, -0.36405938551608863, 
    0.7827858682481343, 0.5632985926708788, -0.028522342913770878, 
    0.34564440462571855, 1.7297175843104802, 1.173973774851504, 
    1.4010537463669357, -0.08524141810284191, 1.0335691334899575, 
    0.9137043879121988, 1.55214669677906, 1.3250829254765115, 
    0.8061491829081735, 0.10483710280898594, -0.000855367369029577, 
    0.0009857742369893151, 0.0001422036911774078, 0.1681990761795153, 
    0.4324193323895519, 1.1847810057015278, 0.7225511422666472, 
    1.6370800806486003, 0.9763841538540801, 1.8014174975853987, 
    1.192121818943559, 0.8885432444875677, 0.6194813772606155, 
    0.4203860175399978, 0.24463364615579883, -0.15696477403000708, 
    -0.14159233239044955, 0.3601342759566437, 0.06476144788139888, 
    0.48613767854341955, -0.048214450293410066, 0.3956735691644925, 
    0.4589564186060371, 0.9778744380369545, 1.0016580377552087, 
    0.8618795839115113, 0.26452486422226995, -0.09313832827438634, 
    -0.0009052061405881986, -0.0008530044643242688, -0.0008243952072364042, 
    -0.028754276484277388, -0.12633908263456206, 0.24361153444147476, 
    0.13005418142017983, 0.433498853107563, 0.695318610673296, 
    0.4522873457156714, 0.4604042551086594, -0.34469463240640363, 
    0.6790830459316811, 0.862086272300449, -0.3279577074014942, 
    0.07697685448665577, -0.09221449070807321, 0.07407528923937005, 
    -0.04739539269973274, 1.4158547698419963, 1.54761540658089, 
    0.8918049081258191, 1.5694727109883673, 1.8190686692573215, 
    1.2798803879526162, 0.8090852821011488, 0.2043790589897998, 
    -0.05384841595378512, 0.0009598136778349786, -0.0004779350548058136, 
    -0.0007219219198141055, -0.00415186710865165, -0.41084924712527787, 
    -0.5564997911240522, -0.8004470702077211, -1.0516737794294455, 
    -0.8113847297579567, 0.01774969096191573, 0.3028902997866363, 
    0.004635440165824945, -0.1061002019279246, 0.34642932114818215, 
    -0.04713182698104121, 1.088012029444369, -0.07402962070755838, 
    -0.2113977742502297, 0.7373153003002711, 1.270544097489592, 
    0.11868506789398496, 0.017278654286656828, 0.9306942973892122, 
    0.35550240293381047, 0.36100091477093404, 0.9924008025779558, 
    0.527601025925115, 0.09778227209560938, 0.0006321353546075814, 
    -0.00022891066607852234, -0.00013214763548133248, 0.00026241167360417373, 
    -0.09891631930640313, -0.2252353550909914, -0.4210117532258976, 
    -0.48984362209482835, -0.8458402599699105, -1.3745480033770257, 
    -1.5874497479062162, -1.26150525640523, -1.107824509312258, 
    -0.8572011171879554, -0.41431555374263224, -0.020860496718121714, 
    -0.05483503050569642, 0.06516609471689119, 0.02791454717560886, 
    -0.3344894843916279, -1.0803254744546409, -0.843546757353608, 
    -0.5891440777281469, -0.5997547914477326, -0.24318650234572384, 
    0.00042801658210521925, 0.08764757403730913, 0.1040900404121454, 
    0.0004030521504539146, -0.00019727333485539166, -0.00030073730834037377, 
    0.0005215864399315457, 0.0006950709442857476, -0.00016548311674949832, 
    -0.0011280876468480962, -0.012133927400890983, -0.09181070010427918, 
    -0.08381550697419936, -0.007522896940441684, -0.08996545882210626, 
    -0.5114831088892139, -0.2833511681263254, -0.4164541321358949, 
    -0.2340604118208691, -0.41160602382605327, -0.42651065418254047, 
    -0.34223003441269606, -0.19378053140516194, -0.04773558123749266, 
    -0.03872708025018687, -0.03627754747199448, -0.011442553558163135, 
    -0.000342454956695872, 0.0003447533375625054, 0.0005336062795198971, 
    -0.00033716184941479967, -0.00009439360156721956, 0.0007481342933429004, 
    -0.0006533882053063778, -0.0002637564843294667, 0.0008888027334696021, 
    -0.0005569928310164688, 0.0003180842216577914, -0.0009134897015329289, 
    0.00039605491904199616, 0.0004850304311696604, 0.0006957682161419891, 
    -0.023234482779021137, -0.01147212453740761, 0.00048317862671081504, 
    0.000022370834655947714, -0.00031494795143214584, 0.0002605185617598997, 
    0.00009088396645576395, -0.00036110139264707453, 0.000828664618603342, 
    -0.000789465082662279, -0.005695230564656121, -0.003014018545550763, 
    -0.011674982201847817, -0.0007203385627724198, -0.0008791441133272947, 
    -0.0003806080846185636, -0.0006668614163805567, 0.0006143221775901757}, 
    {7.671350955191884*^-6, -0.0006351242148722657, -0.0002444499024739869, 
    0.0003174726627012889, -0.0004057290495710743, -0.0004647242038201913, 
    0.0007983609603400923, -0.00019171255349408273, 0.0008596966736335657, 
    0.0009439488770904714, -0.0008250212837025493, 0.0006871200740747596, 
    0.000035079539772373805, -0.0003570869163361887, -0.0002527656309201324, 
    0.0004747575941693289, 0.0004194730619420479, 0.0008521991796364976, 
    0.0007202358178431986, -0.0007420774972311593, -0.0009801973741936426, 
    -0.000574921475577474, -0.0003463319925913438, 0.0009096306529604962, 
    0.0008271489373302826, 0.00035544090787940257, -0.00042700180523469857, 
    0.0009196684642373051, 0.00016317359121314915, -0.0001076239631909474, 
    0.00008675655749208365, 0.0003985209247777911, -0.00043853784257018996, 
    -0.00025944269344355467, -0.0009807664755198979, 0.00012690770793150188, 
    0.0005389929531631796, -0.000558505159419907, 0.0009203905362681576, 
    0.00045487133902429353, -0.000402560149143094, 0.0009361375620736219, 
    -0.028180163987798688, -0.035259318334278256, -0.004528845424570863, 
    -0.0005028985747619541, -0.00008773391891207695, 0.0009284748141297726, 
    0.0005910230581167836, 0.00020322378136924745, 0.0005704243516522, 
    0.0008763774219074463, 0.0003299768044131065, -0.0002664404331096616, 
    -0.0006707759057781497, -0.00003548409568589726, 0.0008047926156147574, 
    -0.0006129425104802076, 0.0009927856602595436, -0.0003233263352114665, 
    -0.00029633117214583214, -0.0032108359344412874, -0.0007717877685887275, 
    -0.0006374671895458008, -0.026661118009654892, -0.05639298533040314, 
    -0.05165373016360397, 0.1743826142943205, 0.318468537449088, 
    0.1317683432531798, 0.016849648367296688, -0.07258895053118765, 
    -0.008096017141055485, -0.20908286823537642, -0.2906045169511187, 
    -0.13923965070840502, -0.054725862579122264, -0.0456616025045437, 
    -0.021102462839158932, -0.011747632444712145, 0.0007567198226069986, 
    0.0007246790839981906, 0.00034352945442371434, 0.00006613604070070502, 
    0.0008596407735731392, 0.0004863338359120642, -0.0005409013707267749, 
    -0.00036184933622596333, -0.006052946102178268, 0.4165177272490744, 
    0.19384534419069896, 0.2863004091415131, 0.38313602928064877, 
    0.026917758086765223, 0.6534182710028559, 1.7534309892071929, 
    2.4117069503770447, 1.3397847302902257, 1.6469277350562719, 
    1.147845056055808, 0.9265973985239602, 0.4894324328487069, 
    0.8916150246975539, 0.809855953488663, 0.8727974552215854, 
    -0.5185515040029303, -0.6091151600027528, -0.26590603844182664, 
    -0.0674904939875421, 0.0009986310447439597, 0.0006241599616633865, 
    -0.00017514973480385826, -0.0006191597105867932, -0.0008380819401923209, 
    -0.0003647955721946654, 0.05666261190494957, 0.25637020111642644, 
    0.9408525726272523, 0.9810126361023674, 1.0966572122943867, 
    1.2881385574657087, 0.8306154643124619, 1.1171481483097472, 
    1.0162718280362062, 0.8902734818483659, 1.4953858205673838, 
    0.6637002833763572, 0.5511678573731014, 0.8718583679414588, 
    0.7105192464938448, 0.8356533962815937, 0.5720447970586502, 
    0.13700137179265506, -0.2788587985301065, -0.5315873726420242, 
    -1.0678242591391445, -0.16744819703412214, -0.0016512500006075367, 
    0.0009297861572195518, -0.0005063934288645303, 0.0007163968602203253, 
    -0.0003357199158502363, 1.6193847459433237*^-7, 0.20056901985343634, 
    0.6035342474780824, 1.3776814032933142, 1.6754337707194107, 
    1.1034984152699143, 0.44026803718062946, -0.3834613087428617, 
    -0.14520440919726899, -0.0011770329874946095, 0.27383477295344205, 
    0.4383923683905905, 0.06494739503814467, 0.9265164787369611, 
    1.1950479415405286, -0.18837255655374477, 0.3630010303773083, 
    0.7847685666998125, 0.006647612367072016, -0.1037042660826005, 
    0.22370181245493856, -0.6715822836759536, -0.31122226679164894, 
    -0.12628966466256622, -0.05990426496022629, -0.0004608477737093597, 
    0.00020720888711337144, 0.002553892637886399, 0.034088103597007445, 
    0.3150674440987744, 0.6353556946916529, 0.7377139922268895, 
    1.1361135426245523, 0.22861949781454824, 0.39062963150276314, 
    0.5528204549446344, 1.1124743932551588, 0.5332857752859729, 
    -0.16913159382611953, 0.9644456893636926, -0.21883121493743654, 
    0.4833794011979399, 0.9220288994489528, -0.13295284219603345, 
    0.776796168972821, -0.9296346094773529, -0.12209071929217431, 
    0.35231613481231455, -0.768825521718885, -0.5303786870279508, 
    -0.16883222061560693, -0.2542412821857841, -0.07654797863172677, 
    0.00003144854433912605, -0.00047744197619462784, 0.10319086484811679, 
    -0.10230521293238523, 0.3284952084292005, 0.915438320129039, 
    1.0889928904088764, 0.6163835182227457, 0.0011036673014169283, 
    -0.19915797448162623, 0.41565885751310305, -0.21781787947186915, 
    -0.1374702317124463, 0.6555994782076369, -0.47762787362223486, 
    1.1726122679953426, 0.6506488369111635, 0.36863594030072433, 
    -0.3301242083214643, -0.32733818854903696, -0.0003840688637807521, 
    0.17374165874434416, -1.0824372315974813, -0.8089613189364395, 
    -1.2780770094619123, -0.8679908110968843, -0.3978356008816689, 
    -0.005773819077644829, -0.0004937194360181976, -0.0006801309628497631, 
    -0.057776479817795844, 0.07956637083370903, 0.6535254355881401, 
    1.1682807279480634, 0.47156300990414135, -0.08664445200284517, 
    0.13642269129993317, -0.2799552059554981, -0.40461648995245, 
    0.2750252889151233, -0.2721283583562286, 0.05678850130772119, 
    0.08752857324102899, 0.4210907369433639, 0.13382280968066412, 
    0.27365070230952865, 0.04981062265624145, 0.692399255330185, 
    -0.046212705460162824, 0.1653615413942739, -0.2924578373411933, 
    0.8020061423365966, -2.1110635577527064, -1.4889535244413634, 
    -0.3292703768561534, -0.012779457873476627, 0.00012323369682322043, 
    -0.0003673593738284145, -0.060316949014407366, 0.17062705874256734, 
    0.9938831490342227, 1.8291739438859334, 0.12194808557529781, 
    0.5700906773338649, 0.39061399700416616, -0.1929159385744095, 
    0.3437848865575082, -0.7168224338438901, -0.9021743464293038, 
    -0.13365621493576965, 0.30362021769037734, 0.4284938800200916, 
    1.404995895555671, 0.8250449911358698, 0.2910874262291771, 
    -0.20531523579803476, 0.2827895685369244, 0.8794815347377436, 
    0.477384307753435, 1.2045254531623766, -0.7385113730832549, 
    -1.7177024552223823, -0.26664484818172246, -0.10066760766723303, 
    -0.00033716694112885856, 0.0003730737246406997, -0.0031924019755259414, 
    -0.016184836382251797, 1.242856599665515, 0.6658594958050741, 
    -0.28167732229683934, 0.344790334836387, 0.4042343713541527, 
    -0.7440665897232737, -1.7095788510847765, -1.5448138419669366, 
    -0.802358403818387, -1.1396375670050256, 0.35351603498515316, 
    1.3217950161165168, 0.5034185562196704, 1.1728148965654104, 
    0.7367091965069931, 0.5893419640231515, 0.6796404119504935, 
    0.9099301905988136, -0.4129506225631296, 0.44063754642939756, 
    -0.021660053984779125, -1.1224381838930466, -0.015933577614527024, 
    -0.03205713207998153, 0.0004712303532153858, 0.0009424308201901738, 
    -0.004754013216905994, -0.10501321697471602, 1.1474794491551539, 
    0.8039643370430501, -0.5591290150615754, -0.6387783808573072, 
    -1.9478855469317637, -1.2241137572102068, -1.3006583904439972, 
    -0.8333641179399647, -0.06963203744120158, 0.25420670446896815, 
    0.37691931434613374, 0.6643548030621846, 0.9355118895274738, 
    -0.13495432882479735, 0.5758465664678885, -0.6075263168011054, 
    0.4688254062301331, 1.1234981371339303, -0.5125216309591968, 
    0.2759745554204337, -0.4231079110505491, -0.7524638147920689, 
    0.20723127772512942, 0.00006657878724416469, -0.000984135236112529, 
    -0.0000900939425627853, -0.050961990468375115, -0.12511505747713683, 
    0.4776086851193692, -0.11325829425361665, -0.6363296474009704, 
    -1.0692091907655674, -0.9318266880266843, -0.8742193672941747, 
    -0.27244737082816756, 0.5136106211617478, 0.12981141599500726, 
    0.09406599384067173, -0.08855516931204677, 1.3711932504976752, 
    0.113269522356933, 0.7503707595647726, 0.2929172742354431, 
    0.754046440782698, -0.009023694853475143, 0.015124991953429624, 
    -1.8378969349068182, -1.509362779885127, -1.0760440429569855, 
    -0.4864218186836882, 0.15789838837590667, 0.0002484657719283766, 
    -0.00021507369860710598, 0.0006680469834514529, -0.0994671042174092, 
    -0.11322157555953682, 0.1187860176775283, -0.8925022314466732, 
    -0.6324484030797418, -0.6726926569408146, -0.6436614903588962, 
    -0.3664027308177161, -0.5923467631533571, -0.5380820521860734, 
    -0.9560667366955445, 0.40654207819858623, 1.0149352128395202, 
    0.051534024031742044, -0.8058629102535666, -0.002053585998040745, 
    0.3516799601904922, 0.988138516553073, 0.22988246578351076, 
    -0.973480273345146, -1.5368113123702205, -2.3512948214695344, 
    -1.1441207284774177, -0.22756673627468957, 0.08286936102697061, 
    -0.0024475760892810126, -0.018315176094160814, -0.0010223187144602279, 
    0.04135582929742215, -0.03881433766700547, 0.058177341492251296, 
    -0.35479443162876706, -1.1193477902474545, -1.1027217312835829, 
    -0.8201680966138553, -0.23873038496202925, 0.005152660094209628, 
    -0.5210689607708653, -1.1345576065411926, 0.3563818749118042, 
    0.013336322748353942, 0.051507986415561736, 0.03550888123681908, 
    -0.06689153749820677, -0.50092626561345, 0.5353552190740054, 
    -0.7665278729796811, -0.5194340167390059, 0.6117257912988177, 
    -0.7917224540043888, -0.8683448003545582, 0.03524363756104878, 
    -0.05957240549761079, -0.04854354041840253, -0.01239599537992753, 
    -5.706546999836994*^-6, 0.19988350003290448, 0.09372980573393819, 
    -0.07654280690896285, -0.12710756972597181, -0.4800971957502333, 
    -0.1347318448554739, -0.40922528266631464, -0.41019695293475583, 
    -0.4444694547690617, -0.4490859128271983, -0.27046949813876575, 
    0.18304473076945063, 0.06363371293526067, 0.46273719119677253, 
    0.41593897515874634, -0.0059764902863172755, -0.3317310121758863, 
    -0.4701190170332217, 0.260650169983219, 1.494050618567278, 
    1.0673057544421989, 1.1783987123014794, 1.1938581212632258, 
    0.8408902067184684, -0.2519374266664975, 0.03243229601942803, 
    -0.00035549429520205153, 0.0005446022028545421, 0.09600748012812563, 
    0.3744462176382579, 0.5297110384487125, 1.4181171387652618, 
    0.5528379670806441, -0.2183048369991891, -0.3364509566118014, 
    -1.4931849112321427, -0.5540195179052166, 0.1056668913030731, 
    0.25095238266908726, 0.006581007066322008, 1.511266304894935, 
    0.3459886287949027, -1.1208647577814257, -1.4309685961604355, 
    -0.7943687989159162, 1.1342810252744266, 0.638267098265142, 
    0.6724047899190966, -0.4463297702989219, 0.7494416494935067, 
    1.5628925668576372, 1.5806663508450731, -0.40798157343349833, 
    -0.0013838655700939588, -0.0009756148539664279, -0.0007079795577961414, 
    0.033240930517747624, 0.3536083679294569, 1.3223733734113239, 
    1.4729597242690193, 0.7443689477108403, -0.0172507036483981, 
    0.103284606031175, -0.5635186655555122, -1.6178640183712483, 
    -1.5351462681133667, -1.3378249044109065, -0.4312396659495153, 
    -0.675631123736269, -1.5177256416480394, -0.9814179495253438, 
    -0.06945131292288353, 0.6500931657541191, -0.09963018511296075, 
    1.4163426620428232, -0.38792840064306344, 0.28867306228003947, 
    0.3145202482254476, 1.1485474615173858, -0.043687865780475045, 
    -0.7487291530438529, -0.010236379441418773, 0.000887974533566126, 
    -0.00013568410102073, 0.0007490290492573425, 0.42764404716051607, 
    2.203803180959102, 0.9785441840538728, 0.796043603152355, 
    0.2447316867505278, -0.6414044532743749, -0.22436034853607806, 
    -1.1433992610013386, -1.4939031635137063, -1.1614058429162195, 
    -1.6264364570647702, -1.2268571971472417, -0.3262916237819906, 
    1.0124928220349345, 1.2281286719060722, -0.14018527540654047, 
    0.16362069510042648, 0.3314225784693495, 0.11266414749501524, 
    1.176263756772335, 0.7149688969424141, 0.1210625820846273, 
    -0.9439034703948066, -0.42416566079737816, -0.0011712199496389261, 
    0.0007468936225509295, -0.0003330345051425259, -0.0003869862559769164, 
    -0.19728532344762253, 1.7847891595919596, 1.3828563532239495, 
    1.7856687971727396, 0.13149162886344615, -0.353079297993286, 
    0.15643561989732488, 0.006289012819205707, -0.31806666728999183, 
    -0.6972622259286655, -0.07751247588227948, 0.3839264528496012, 
    0.4764989215786406, 0.04136553399899179, 0.31965386622719283, 
    1.4884790392160088, 0.5275014508646562, 1.3351672991927699, 
    -0.4727278396500588, 0.678682501645766, 0.3652251626678264, 
    0.3959319625485424, -0.3189425633451779, -0.08876420489838875, 
    -0.00157351470883873, 0.0008517268702315517, -0.0009869553196269827, 
    0.0006874977187606861, -0.3711249810528831, 1.1785060450484035, 
    1.4509523755702707, 1.337416696496725, 1.505475220180499, 
    0.6832819008504436, 0.31754343357423265, 0.6827441073082263, 
    0.47159780383877675, -0.3113698264848514, -1.65265820758898, 
    -0.24410314916360487, 0.9278741731209397, 0.146127677417152, 
    -0.1681711307566806, 0.8262217852145852, 1.0371935252904831, 
    0.8027678509257485, 1.7508198749816306, 0.31682780642224473, 
    0.24928853520832892, 0.43799764107324823, -0.321474133067544, 
    -0.11209451231643608, 0.012046168618500736, -0.0008699985619096991, 
    -0.00033500787908134777, 0.00007034000522460995, 0.06710582373861365, 
    0.8801305954404453, 1.1724170270015315, -0.20064855838929624, 
    0.403870518595857, 0.8101930427444083, 0.5112678801713002, 
    -1.1174164254729286, 0.21788233863966672, -0.5550487659899713, 
    -0.3210498231154264, 0.2577139772270264, -0.37414665237496686, 
    -0.26601184987610826, 0.6101643162784646, -0.2227826022932875, 
    0.9257571106795233, 1.1921549055249192, -0.6055781321183245, 
    -0.8299377579113387, -0.2509492410662424, -0.5659832798491162, 
    -0.5646271597489909, -0.17019490987111813, -0.02706561681622138, 
    -0.0007597455296827912, -0.0005419235640827707, 0.0004704429078085462, 
    0.3066648063599743, 1.0238348289315573, 1.0481634406887133, 
    -0.3028005804287299, 0.45149783304907226, 0.33048019952984037, 
    -0.2045499140512501, -0.2660007710866682, -0.09045164212448636, 
    0.6491930644129623, -0.42296963053074477, -0.37326248630420994, 
    -0.2669248124880461, 0.7811714747823373, 0.45531447490080346, 
    0.5339500388520658, 0.05715401363980662, 0.4751896973400533, 
    0.3794274532738572, -0.04729145749499289, 0.42000482150078994, 
    -0.19669985130454867, -0.4685782912298024, -0.10713881865971592, 
    0.0034717138989635967, 0.0000893338710652434, -0.0004528330573129735, 
    0.0003787524704636498, 0.39809176969985816, 1.2422209086325773, 
    1.5784089106657562, 1.1133833748960504, 0.8516019660204143, 
    0.6226002613088789, -0.08185594410770525, 0.3285011176889774, 
    0.31690007336573095, 0.5370669634849083, -1.1494585920666258, 
    0.874515201512488, -0.28594300336534134, 0.25392672924719123, 
    -0.40367003163893506, -0.12435525406191633, 1.3019622996297837, 
    0.22183294494618788, -0.05500180323747944, -0.16915278794177574, 
    -0.44028607324446345, -0.4145720272978585, -0.19339509853197207, 
    -0.1175672782786077, 0.05179478715633431, -0.0009684976188394125, 
    0.00021251105997918598, -0.00040232626241431483, 0.22563136881009543, 
    0.8053272666732737, 1.4464311859597625, 0.9947959293722912, 
    1.5635960354563487, 1.4268528499154938, 0.005377505060657069, 
    0.46874663720634246, 0.9636308390454955, 0.9264756956753614, 
    0.3644350069445804, 1.1322541253223755, 0.820865032951183, 
    0.008168933239205289, 1.0197948475458565, 0.6076864902431013, 
    -0.433325504380588, -0.616971739778525, 0.12871146003835746, 
    0.2683035049150487, 0.14002039215392684, -0.16024202118862854, 
    -0.22368140219077134, -0.017492820366410936, 0.0008350667910236986, 
    -0.00044518498552184246, 0.00015682066256016147, -0.0006925457085202309, 
    0.023706884720138793, -0.17006099191164822, 0.15751583069694075, 
    0.6694774145364372, 1.2842030087424723, 2.3465739069760922, 
    3.0654227228909243, 2.6406403433110284, 1.9152636574868924, 
    1.1758182693474861, 2.0052387131597453, 1.6324644785230689, 
    0.780725318463994, 0.8242134862994018, 1.0191750786993266, 
    0.7156909325504281, 0.7924618036812959, 1.245892657048816, 
    0.42685578822599807, -0.12013903535743903, 0.08659344120216451, 
    -0.0009384293860654604, 0.0006152458073863345, -0.00047140194329603285, 
    0.0009090051520084632, -0.000051001185287233644, 0.00049993906648579, 
    0.000016140753382468814, -0.000023659524808867464, 
    -0.0010860969345812305, 0.0003175529501000956, 0.12312445404692113, 
    0.2087097190896604, 0.19831081713398746, 0.06965345172683927, 
    0.03268067264259411, 0.36010491318661025, 0.478206727002286, 
    0.34531035717453834, 0.36520646753266167, 0.20338645886258777, 
    0.30582497317777696, 0.4812994296212397, 0.5174757782264092, 
    0.49155879010879056, 0.4871574351157092, 0.3401590998294756, 
    0.07959110447028027, 0.004202351077420719, -0.00049606395053059, 
    -0.0008136293459305921, 0.0008903303964580044, -0.00035991577297010257, 
    -0.00022902536020855775, -0.0009007096630128252, -0.0009580072521814015, 
    0.00013195849586987657, -0.0002524889058063877, -0.0007450566365264856, 
    -0.0005026347578125619, 0.000472211854859905, -0.000024699374227593773, 
    0.0009779894472003075, -0.0009273548971780718, -0.00461800943817793, 
    -0.0008705590108229542, -0.0012329022999422823, -0.0008463940846168848, 
    -0.0024265079485703157, -0.003428587364391903, -0.0013815596725157777, 
    -0.0010603807201639169, -0.00034220834060183513, -0.0005292616871447745, 
    -0.00042679136616346276, -0.00003916893169175013, -0.0005605697538870455, 
    0.0006204529910022859, -0.00016520405182359008, -0.0009771393166316334, 
    0.000511000310981299, -0.0008023255207443443}, {-0.0008124913687257273, 
    0.00022956225945081846, -0.0004347723996894685, 0.0009000583566964116, 
    0.0007434063517970354, -0.0008449850985957179, 0.0007331293209002199, 
    0.0005454061566365041, -0.0009097310887484556, -0.00042323529496009595, 
    0.0007281803395779254, -0.00015763398848438453, -0.04585774218585328, 
    -0.0988055129309872, -0.000020989494427287894, 0.00016717035187990576, 
    -0.0001924122188296344, -0.000055201494667663116, -0.0008366047590698282, 
    -0.0007403973665092724, 0.000843744087543636, -0.00039330379737581795, 
    -0.0009745425639506931, -0.0008618488948774566, -0.0006214646953537559, 
    -0.00005292516636076945, 0.00016319784979061582, -0.00006346804067321708, 
    -0.00007531498304599264, 0.00011851784078628982, -0.0006586532494414063, 
    -0.0007394568422636415, -0.00015017908256253866, -0.0005741101756150229, 
    -0.2167940569879208, -0.41892549600470025, -0.3643406124502036, 
    -0.14625715467402786, -0.24812794215901787, -0.4345699732121203, 
    -0.6363320036744186, -0.32592481807243534, -0.013894896378048107, 
    -0.33247884363350505, -0.45519013847214496, -0.15743902819546512, 
    -0.044841933552772634, -0.032257918533185735, -0.022254237704755733, 
    -0.03727959787875526, -0.09255161614369431, -0.0692254706430196, 
    0.0006188523836590347, -0.0004623748866070987, -0.000662045315358501, 
    -0.0005132548667002653, 0.0003195459968190939, -0.0009426566387100619, 
    -0.00014048623350175265, -0.014947431765398776, -0.03883466481789876, 
    -0.008032542863692965, -0.1610700396007014, -0.5559071321897218, 
    -0.6777613968957465, -0.48097263638073645, -0.9560990467570258, 
    -1.068829586841127, -1.3481959855471326, -0.9080936031284703, 
    -0.31740695152260917, -0.5390407298073047, -0.767338691789224, 
    -0.45538054032917685, -0.38346973334335793, -0.26959150542348287, 
    -0.19806587469683942, -0.23534114965930109, -0.2678971655527883, 
    -0.1751641828323893, -0.029566056063817684, -0.0013684441059769836, 
    0.0006379063248863393, 0.0004431584848004332, -0.000013753066304819303, 
    -0.000861961515731138, 0.00014880063522674028, -0.04346873898346022, 
    -0.018965420676189726, -0.027378015163235857, -0.31478466260768184, 
    -0.4776066718341256, -1.0034724242307618, -1.4609921848158, 
    -1.4897991611121493, -1.5685386255151963, -2.4112225453367415, 
    -2.8923809123937514, -1.8653913492223024, -1.7733547963085963, 
    -1.3313454931473454, -0.6599226876943426, -0.6413799908919244, 
    -0.3219702701075883, -0.03140114211993923, 0.2545056745068877, 
    0.04440910627363936, -0.0593222665031965, -0.013356775049304891, 
    -0.0005141015192432335, -0.000040642558395128965, -0.0005278697380915473, 
    0.00013460980670009122, -0.0008395381754915734, -0.0008582588765037386, 
    0.00007592320468591185, 0.127262289764275, 0.09035372494497847, 
    -0.3655229168474683, -0.30429947293319154, -0.9628160026440017, 
    -1.005911487476291, -0.8217657540604163, -1.044186485608252, 
    -0.8853595646535796, -0.03637079966279308, -1.0076085335049296, 
    -1.0191206462171785, -0.4169312372957178, -0.454121324685395, 
    -0.5438342994910628, 0.9092147857211441, 1.835363342645104, 
    1.6195961406432764, 1.5848128024701367, 1.2898123198337343, 
    0.7964201112626582, -0.055729821256327, -0.09901879187325566, 
    -0.0009511209211541703, 0.0008451796767837915, 0.00022180904079270721, 
    -0.0007710083690972143, 0.015778937315082644, 0.24356536601395368, 
    0.37147299105053944, 0.10466784546873235, -0.09468530551858263, 
    -0.21759946262704083, 0.05510442627174647, -0.43605228091155424, 
    -0.4776389257717069, 0.21400738630585722, -1.2355993071176987, 
    0.004539775718915988, -0.11961292837017125, 0.15412116175804472, 
    0.0738951291031479, -0.014056156526458755, 0.6367762195361977, 
    0.26201026874690436, 0.1555392658132928, 1.1582771943310746, 
    1.861669486653893, 0.29972369580042124, -0.26182216769521893, 
    -0.06553731159624643, -0.0009509156879275951, 0.0005649575424548602, 
    0.0009547195448840634, -0.0004474585384511054, -0.02562969923101624, 
    0.41379354833149595, 0.840745733851171, 0.461102716981869, 
    0.570168074163224, 0.07725960733868172, 0.4997616461287992, 
    -0.41980936903431215, -0.8084842366705175, -0.1793818150275921, 
    -1.6761396789078333, -0.8755182005892171, -1.2293391088621197, 
    -0.5410044936581836, -0.7178576224733557, -1.1553279652633366, 
    -0.3104440000630393, -0.10237805616038105, -0.644434794863574, 
    0.24704352653543313, 1.6580208548517967, 0.38345304519542683, 
    0.04230287829623276, -0.037512884568090404, -0.0036814584645052436, 
    -0.0005763126833475234, -0.007742253156971582, 0.00015741613394420554, 
    0.0645141149268858, 0.38312655981995486, 0.9534888273634531, 
    0.19439467752945935, 0.5295674392346923, 0.1627654804040026, 
    0.6117494507213784, -0.49592191631064014, 0.10934028250876988, 
    -0.9241358431192392, -0.776135382959875, -1.3540729581138848, 
    -1.2360504855516503, -1.0786930654809344, 0.07363777183553676, 
    -0.7515535915951111, 0.05434450012403899, -0.048407331433535504, 
    0.12106822649586588, 0.36132597739134503, 1.5375085470601009, 
    0.9278494080367932, 0.5936982432698822, 0.25248517688814953, 
    -0.007589962372469951, 0.0003371860498964661, -0.048909051957901545, 
    0.15339939866597177, 0.10092104550390486, 0.43476289357982173, 
    0.8144216067870004, 0.3062749913177647, 0.4156430302351797, 
    -0.6641559856498748, 0.34650896697430855, -0.9710811999790995, 
    0.18273650642046962, -0.08584012700989486, -0.849103326123769, 
    -1.372375565191942, -0.5259210500138137, -1.3333029683888393, 
    -0.7300239253000047, -0.38213186740080696, 0.1864648919284355, 
    -0.37249881234074694, 0.21318116498781348, -0.7306092724826047, 
    0.6633104912472355, 0.29234512689499964, 0.6549366128225916, 
    -0.1551259465824249, -0.030226116766764705, -0.0008336275643153056, 
    -0.03677563898624216, 0.12337059263724352, -0.4058942882822393, 
    -0.44918283016434807, 0.2237724864617929, -0.045277406202185254, 
    -0.187774593155061, 0.14171331444629387, -0.25977529830713886, 
    -0.12426791507196812, 0.2664975560450329, -0.3533519557929505, 
    -0.5015426284279207, -1.5614346575697358, -0.5846717896591228, 
    0.07853948678834999, -0.640148937703987, 0.02193514705736811, 
    -0.22227492505795823, 0.6377501047789218, -0.1586488030815204, 
    -0.08128704380114142, 0.2682847851085764, -1.0635059408314398, 
    -0.832915460432003, -0.317042984377078, -0.031008859782254528, 
    0.0005023380511559228, -0.03495962235038143, -0.1711883709499439, 
    -0.5010603373646327, -0.359907686457099, -0.3958954898663117, 
    -0.8089158506061174, -0.109307907865934, -0.14670442820665502, 
    0.5155415077658426, 0.16555612978598078, 0.22054869031837954, 
    1.2350148424933256, -0.8820556122535685, -2.5329469940053406, 
    0.08801230515211163, -1.182483061784944, 0.2325352617909094, 
    0.18182732181121655, 0.41193441422341165, -0.31712979754224424, 
    0.1644621870568215, 0.11495300285454632, -1.5766840176586445, 
    -1.192320992448227, -1.0296612492746346, -0.38914484356142764, 
    -0.006157101472617954, -0.00098642520773786, -0.03821971610884089, 
    -0.5507376895750801, -0.47711863843314967, -0.6107843494371197, 
    -0.08054810442464874, 0.22022609825201211, 0.1696757597692279, 
    0.22523407699910505, 0.9850315706325983, 1.6382586042445855, 
    0.6082136161684519, 1.707205857195037, -2.3697425156185425, 
    -2.3387813503532886, 0.6640095589804202, 0.729917453159256, 
    0.1155648007595883, 0.2096918896036095, 0.08698586124155243, 
    -0.8533397468283459, -0.6441643154039319, -0.31150034367686197, 
    -1.452024215066212, -1.450979008530985, -0.8188624280846067, 
    -0.14729513604374184, 0.00006151507934863877, 0.00019439212301011017, 
    -0.014246368848319795, -0.4485055272101344, -0.8375653434844771, 
    -1.325544347206894, -0.2655394831832045, 0.6266114682245781, 
    1.062272780450932, 1.5402866374769784, 0.7168666227593323, 
    1.4021329659225747, 1.0512840939447385, 2.797870787977464, 
    0.47182527494449616, -1.3604043177557856, 0.6665702244332647, 
    0.7537738722904473, -0.06312543557127573, -0.09905271172150086, 
    0.12035897180514087, 0.6241203237359888, 1.2618594207685403, 
    0.5270951270533325, -0.23771448389456942, 0.03951283386449641, 
    -0.2841764077366025, -0.18944557545564636, -0.04069767970863043, 
    -0.00031911677883421884, -0.03379358589677071, -0.28608019052799705, 
    -0.7712456689463879, -0.41168608548512786, 0.34556582286898874, 
    1.0404626020356968, 0.8860469465561196, 0.8450804573016912, 
    1.2175792846575588, 1.2909931168585005, 1.193298366970656, 
    1.6202469963698047, -1.2043311990324201, 0.3401429041357365, 
    1.7140931496301701, 0.6596148649567126, 0.790856032348558, 
    0.6317294967711039, 0.5369290641266565, 1.1246513353351417, 
    1.0476074897152499, 0.9408827423135083, 0.11764033781233178, 
    -0.4098118189285059, 0.14157047956921315, -0.02271657747349795, 
    -0.17099454976317935, -0.0004499620773454825, -0.05031382350780631, 
    -0.1112661773301737, -0.2554643730460998, 1.1356956143676613, 
    1.4751310339267452, 0.7248116908924646, 0.756529759281642, 
    0.538881173441238, 0.34681978485076, 0.3778154682544679, 
    1.060022143630428, 1.2563577893281137, -0.9217005042953228, 
    0.19456763713669503, 0.6305025089989746, 1.2922220836570084, 
    1.7037940932440803, 0.24877936152473917, 1.535359215350219, 
    0.3258084387693738, 0.524027294059006, 0.7022047131477482, 
    -0.258569760601477, -0.8010983638394097, -0.46146021234900625, 
    -0.36008675875926777, -0.018535838818100833, -0.0006233934907407112, 
    0.002983729311683741, 0.17253040069537154, 0.18378259572713582, 
    0.9096613206490266, 0.18780793976852456, 0.4396740459962913, 
    1.1843038632201377, 0.7263198136099404, 1.175659748610013, 
    0.2664238630101557, 1.1699102654961921, 0.27904118923213217, 
    -1.015787378676363, 0.25707190895795456, 0.6691196223918361, 
    1.751578759455627, 0.9866256173122377, 0.17840402829368054, 
    1.2302619501304644, -0.5091915633234374, -0.5873170660334096, 
    0.9306634204527554, -0.3277297262339385, -1.9284680040955609, 
    -0.8767929574567215, 0.07915214117787532, -0.014305962338690007, 
    -0.0005739980049068852, 0.0008481890623252444, 0.054048235306933416, 
    -0.31588142308371386, -0.8359778864572924, -0.5935980241997935, 
    0.44230467624328557, 0.6368754738665697, 1.1659808536240859, 
    0.040635310106712334, -0.6756315157225834, 0.017691099176569858, 
    -0.019140295136694976, -0.281557948436539, 0.6761876281376917, 
    1.138492302802563, 0.8285862387010278, 0.44855369990207555, 
    0.4607617537053742, 0.5797440700136502, 0.6515298715662251, 
    0.5276554509333315, -0.19038283652430824, -0.4137153180410197, 
    -1.2603085138889474, -0.8093334863295826, -0.5892882543614605, 
    -0.017747914867257953, 0.0006496659750970398, -0.0007965989291969514, 
    0.20726714754592035, -0.6329310818456004, -0.6392521429557619, 
    -0.6199092745281545, -0.5767312825790817, 0.12910532274696324, 
    0.18592351475666355, 0.5260491303657997, -0.000857078893288483, 
    -0.27385228959098307, 0.29211184265879675, 0.7799423769452192, 
    1.382010708639786, 0.3837767382411956, 0.7549470798398545, 
    0.523888589211716, 0.5105561079925518, -0.607390488187136, 
    0.23207356307868268, 0.5501889893131303, -0.42863291474137616, 
    -0.6349273775206633, -1.3409556514097327, -0.9674985593653146, 
    -0.35058036215246324, -0.11756757761641631, -0.0044565349348949885, 
    -0.0005299093983209002, 0.03390247694735138, -0.4697424869958103, 
    -0.28046084037754193, -0.27804925220326954, -0.3061693775674651, 
    -0.4010272260504556, 0.06757122227316523, 0.3561874943939271, 
    -1.170286909560283, -0.29339863983229464, 0.5697681481892669, 
    0.6314547596319591, 0.3226580701719009, -0.10599853116913568, 
    0.8552133558137127, -0.9451695667862372, -0.2803236951800005, 
    -0.10561979393823863, 0.47571578588124225, 0.15685516287346138, 
    -1.3192808942712442, -0.9278948616595273, -1.045238251344915, 
    -0.7898783203122103, -0.13849496004454137, -0.0006730361915670911, 
    -0.0001501920530626714, -0.03321659103973247, 0.006278545767912226, 
    0.0700576651305937, 0.03557784595379879, 0.5408607964123878, 
    0.07931794419878442, -0.44923203842586595, -1.1854916887802314, 
    -0.902533228513594, -1.1596981939741082, -0.08953873918307184, 
    -2.08723825489802, -0.9301865151091282, 0.5013948244246641, 
    -0.08662800005238198, -0.5296688444864214, -0.4635203323482776, 
    -0.3337719201879269, -0.6751755165728592, -0.7959094671884912, 
    0.10450433909105143, -1.8272928614925188, -1.1987211619738412, 
    -0.7221249246899584, -0.33258102852061555, -0.019374086777269418, 
    0.0006781274180933466, -0.0007136467495352634, 0.00022085464318509254, 
    0.05045638612943713, -0.03341839403610569, -0.14301758117688693, 
    -0.41189152266963547, -0.5487188643072113, -1.4048074720217258, 
    -1.223000774077477, -0.9600001638148437, -1.6318760594521466, 
    -0.2449414935646109, -0.7758337404476746, -1.2252333263749335, 
    -0.32835706946423665, -0.24066286984961402, 0.4486587328936021, 
    0.31485226964104857, 0.11484234880826182, -1.1273469724328833, 
    -1.0407112597105788, -0.17739896105457986, -0.8759786869984274, 
    -0.9406628812404412, -0.624040621133531, -0.33496041710042795, 
    0.00015467604452362645, 0.0004024333592271642, 0.00016338587526672178, 
    -0.00003364029075916248, 0.0019466527586750487, -0.29851642597794303, 
    -0.4863254220936658, -0.39930950775091373, -1.6891763615729405, 
    -1.7494643980482618, 0.12216962540510638, -0.2547421603735629, 
    -0.909982829752508, -0.4853057404636884, -0.23032629959967993, 
    -0.7268310687534769, -0.8180244816784399, -0.021418352229990684, 
    -0.8183159340928926, 0.41985852274141533, -0.7822198798010908, 
    -0.16208981141815287, -0.6465358733460522, -0.039002458046664926, 
    -0.10260116252537371, -0.22127823666368765, -0.4421446570542426, 
    -0.31073717922710137, -0.03100816552295274, -0.00068081257928245, 
    0.00023943729226092152, -0.0005209558194135956, -0.00033091253766850807, 
    -0.29746913270214015, -0.499097921345124, -0.8855316387972577, 
    -1.2167516895161554, -1.1135975326995506, -0.8005897920862738, 
    -0.8446312839028672, -0.3039693695395635, -0.32908037041873023, 
    -0.39072061759102594, 0.019228948270676522, -0.7703228745287722, 
    -0.6869949923205697, -0.8028662452050462, 0.2666829687870088, 
    -0.50594432249518, 1.0837712559707997, 0.15969280221392482, 
    1.3467092346709306, 0.28177147043534745, -0.3375482766629288, 
    -0.37210072361322966, -0.29753190028220844, 0.01558120804879893, 
    0.0005806015353406616, -0.0004968466802671859, -0.0002999848814711154, 
    -0.0006122071261807258, -0.1087796768336036, -0.25360324416065216, 
    -0.5557823470596246, -0.20372968491011464, -0.03842334636370589, 
    -0.06235596332050871, -0.09718417330982979, 0.1275640557253305, 
    0.29262138582225716, -0.08984605017599351, -0.36771838756609126, 
    -0.0011214456781362462, -0.24352145900534164, 0.20230366232115246, 
    0.3464620149099709, 0.22438292076638466, 0.7016584093132805, 
    0.7222344733070184, 0.7825043606142338, -0.8714351366342031, 
    -0.7337415302967532, -0.4571709514717195, -0.024592868733546467, 
    0.018824485420758236, -0.00007244511850454296, 0.0009534000155371541, 
    -0.00017716893421226843, 0.0009548755818978851, -0.03809522586587638, 
    -0.09802281294066229, -0.14296224995624182, -0.054144285925436714, 
    0.23845459077944098, -0.39468722283939434, 0.2661787703436194, 
    -0.022650118984116792, 1.226919207226627, -0.4192411279139489, 
    -0.6985704379113713, -0.1817349133867519, -0.8231691062025814, 
    0.1566199024830283, -0.42069000784139304, -0.33292996774152056, 
    0.09202456969410328, 0.02254241092174832, 0.008477669952773034, 
    -0.16690612200009672, 0.03579137715418717, -0.11509711440342736, 
    0.020673949274651923, -0.0006247393987735075, -0.0007881947973219648, 
    -0.00034226287138501565, -0.0006949554231639441, -0.0007260664801643727, 
    0.0007970540552089333, -0.003459651188729752, -0.22238081600447054, 
    -0.7121817444947302, -1.1365132290098934, -1.5365555571967833, 
    -0.9657134318034579, 0.20122507252139382, -0.44296465330991674, 
    -1.4324043473578447, -0.48296456239803176, -0.29297207130544756, 
    0.10811204719657783, -1.1609321547862679, -0.8914274945995249, 
    -0.8717151922428872, -1.0446208675829385, -0.6749448466073246, 
    -0.23531904798553702, -0.07392721825869997, -0.043506051806288595, 
    -0.09256609786106343, -0.00014905574980190504, 0.0004595945749774728, 
    0.0004553844114689922, 0.0008585706623187332, 0.0006083864281580201, 
    0.0005478221767612327, -0.0041014221333488254, 0.03754057883229062, 
    0.016170660746122237, -0.21110541884572948, -0.6245009887418662, 
    -0.8912734083477787, -1.1288507022641117, -1.364152242219344, 
    -1.4507670723811974, -1.5385964452259677, -1.696135799495226, 
    -2.163163632912882, -2.087764597784293, -1.777969337074811, 
    -1.879455647541452, -1.9284055287022825, -1.4226481772098856, 
    -0.7550316317309461, -0.44809514679274415, -0.3039101044904023, 
    -0.06355601889457645, -0.007463643085320846, 0.000988737842840138, 
    -0.0003400014462119328, 0.00031968511776748207, -0.0003995509625503947, 
    -0.00014923491771425598, 0.0006053400215800678, 0.0001867278258657636, 
    0.00046856131510585345, 0.0008925120835227379, -0.021684855160112138, 
    -0.12533982802126847, -0.11762729685366997, -0.07295486804705627, 
    -0.2036537979423997, -0.058794656401828536, -0.167988433253427, 
    -0.09306727219574304, -0.3294080202327391, -0.08211852495795041, 
    -0.2111276921711978, -0.2068476009695027, -0.24337324413827968, 
    -0.16478712269353887, -0.03100506610802227, -0.11232859642677936, 
    -0.0712663277563606, 0.0006392725245514445, -0.0009319398126114678, 
    -0.00006187722374270807, 0.0003580633416987206, 0.0007858426847641726}, 
    {0.0009641658885402669, -0.00021376899615609384, 0.0001478072568656917, 
    -0.00046498675741648947, 0.0008274799230157553, 0.0004156082310363572, 
    0.0004627171217753004, -0.0003714476073560682, -0.000045868114878804944, 
    -0.0007981326548227095, -0.0004354403115974185, -0.0005165139331559788, 
    0.0006430903131855959, 0.0007697618278778817, -0.00012749319551371048, 
    0.00013248038626888963, -0.000594389674594267, 0.000030275622119120722, 
    0.000296890464520954, -0.00004615117511167985, 0.0005723230413427543, 
    0.0009359247614926687, -0.0008703212214174957, -0.00019523250700477154, 
    -0.0005567357300851686, 0.0008196157923034374, 0.00042592512640521503, 
    0.00005273676416160233, -0.0005647193739606099, 0.0007422707241129464, 
    -0.00021549691301734957, -0.00021199052061072858, 0.000991998285836928, 
    0.0004206569378821432, -0.0008411741949319474, 0.00009995775052791143, 
    0.0004265607833666472, 0.00008765582526351037, -0.0001972943663136278, 
    -0.0008122492421439745, -0.0025974184649083963, -0.0005220366524941786, 
    -0.0011964426431608584, -0.00012635219963342742, 0.0007483273428957447, 
    0.0005532284404907332, 0.0000901712977145497, -0.0006791080692986514, 
    -0.0008152743822487711, -0.0008561678483535813, 0.0008272155239858046, 
    0.0002708782251801536, 0.00042472897589078884, -0.0006851379641066705, 
    0.0004073274368614453, -0.0006968524129254013, -0.0007353685249524315, 
    0.000817946218587196, -0.0006107994666242787, -0.0003922599875532957, 
    -0.0007737948724735632, -0.0028108379790272174, 0.000902759008757967, 
    0.00027214308962444933, -0.000017812141194719692, -0.0036699562347440196, 
    -0.13836741417816772, -0.31449745729663353, -0.2592139621751457, 
    -0.2329392567196939, -0.3716160572489776, -0.1891287604022039, 
    0.054901809927955625, 0.46716941219029057, 0.49955638302859195, 
    0.16077456289779754, -0.2173888414608114, -0.27545839762939833, 
    -0.15101894456996828, -0.0752358056552292, -0.001828004170464319, 
    -0.00020220838285742336, -0.0009636290488068077, -0.0005324621254989143, 
    -0.0002975264262161945, 0.00035661762467019626, -0.0005200317437298515, 
    0.00415315326848038, 0.058091991563281556, -0.23084971110685057, 
    -0.11638882863080109, -0.10560416528228447, -0.017621340210816492, 
    0.18156078089527022, 0.3859652211162853, -0.1783340899623836, 
    -0.1189915373957525, -0.32050042750305785, 0.1680426555894073, 
    0.7754909344010507, 0.540907625219366, 0.9940849922332385, 
    0.9947176567653732, 1.0452303831806327, 0.7683014487101139, 
    1.2940973869191639, 0.8179462794411696, -0.053378651406277754, 
    -0.06867853981212738, 0.07240522499826092, 0.01377465811704839, 
    0.00015223009421403517, 0.00022874564726260227, -0.000819565538548314, 
    -0.0026764263878838184, 0.0032671709552260747, -0.14829691636411838, 
    -0.7591114626991471, -0.7981258076601706, -0.495027683561091, 
    -1.179569711242908, -0.29322248223044234, 0.5262192916254728, 
    1.1620091649593725, 0.5326407598917005, -0.7153323568210657, 
    0.3123947195033077, 1.7591234403072853, 0.36829925705732736, 
    0.4833976768326029, 1.3004222954885327, 0.8676509234430259, 
    -0.5234353045665623, 0.7576013956243339, 0.3904503671336812, 
    1.4273154241514538, 1.7181126112971268, 0.5649163559455446, 
    0.142831067678392, 0.0005464875227228567, -0.0003928591614925105, 
    0.0009939957496235483, -0.00584740587757874, -0.06378854545873379, 
    -0.6491371531846656, -1.0012304023813303, -1.526742372693996, 
    -0.9089206832824906, -0.4462055953355737, 0.4251705113741875, 
    0.32390823353673714, -0.4277502259831314, -0.5121904175450094, 
    0.15494271717353308, -0.2425381217120325, -1.1314193816919385, 
    0.12589241721061517, 0.5067267799268987, -0.27634248303084163, 
    -0.29624539326094557, 1.137429817064398, 0.8571101414443435, 
    0.23579654266198627, 0.6399369720913146, 1.8024914080563477, 
    1.3743868333023348, 0.2891340315913803, 0.03810101940895152, 
    0.0008954481036108678, -0.0009954311376712255, 0.04212373005311043, 
    -0.46969841893460273, -0.6831285577775584, -0.15551724234097236, 
    -0.622950595578039, -0.17000539646256987, -0.07898297751582357, 
    -0.15860118012199584, -0.29043360274997426, -0.062164329089325, 
    -0.07070699703870818, -0.023235679597469833, 0.6718033981348841, 
    0.10488195418525623, 0.08714305337438154, -0.3386154711063764, 
    0.5604452615268588, 0.8646760946170661, 0.7515591299346321, 
    0.549425039332795, 1.071861274749541, 0.517261374185101, 
    2.67174408046872, 1.558380771541996, 0.575464188807979, 
    0.13356075811063015, -0.0005119916371966841, -0.004198424295063642, 
    -0.10906899333990472, -0.7083888549131243, -1.6330885443350491, 
    -0.5418720861254415, -0.4144854542523368, 0.4592273344674413, 
    1.3838967119887429, 0.432474550081748, 0.6674731782399587, 
    0.4164145408122525, -0.08795377835040437, -1.0177914947628108, 
    0.3669191227585549, -1.0751837492042906, 0.18543087658603635, 
    0.5618683784359405, 0.3151164256060523, -0.1622912615260315, 
    0.00529546344522444, 0.14865864408807497, 0.5789002749241042, 
    0.8336903530362887, 2.141193016726893, 2.7322900424149843, 
    0.3357763949622587, 0.1459066314209623, -0.00041805718149283037, 
    0.000978327073646712, -0.1781735082666875, -0.7205810191212055, 
    -2.5528446352543632, -1.064065035683771, -0.059549897719527824, 
    -0.8104165971262725, 0.6903842284988646, 0.16685633044874915, 
    0.2829231798839617, 0.5163121322508386, -0.2522989315260165, 
    -0.2805178312584417, -0.7190570219221691, -0.4377570644983461, 
    0.02769483708560217, -0.2073354230642248, -0.08464946145103705, 
    0.3658610943835315, 1.1022905707895776, 0.31179285221579844, 
    -0.1640950855159579, 2.4163814982433975, 3.7014062925586284, 
    2.603019396674061, 0.536810229621262, 0.11756678388729946, 
    0.0004560156329404158, -0.00024413125058444019, -0.05779934432241556, 
    -0.615090312561282, -1.7430668500434863, -0.6849711441984978, 
    -0.1719128550046336, -0.5720699584983258, 0.05943528672698513, 
    -0.19621425825818964, 0.09092307738414049, 2.043106769461472, 
    0.583527958133003, -0.12784611983497216, -0.9349384667581259, 
    -1.4489673444876345, -1.0093073714178014, -0.572963029471044, 
    0.33377809349972937, -0.07063572111891586, -0.8195746260328687, 
    0.9765065851304552, 0.8333017338972182, 1.2859201030037783, 
    4.292831654310039, 3.9755338448219066, 0.8129793598252866, 
    0.041153996085721165, 0.0006720261231605455, 0.00030993756496875406, 
    -0.02902412233462814, -0.6192431097378128, -0.4744470769798912, 
    -0.5092710609702289, -0.6211961433575072, 0.020410666826641582, 
    0.5250400276321177, 1.6395536432313527, 1.0769050157932465, 
    0.14570827559623414, 0.9580408011309984, 0.3149904586967228, 
    0.6978889835311572, -0.5906005580015524, -0.563636294696951, 
    -1.696080100208698, -1.0916679298261038, -1.30438745818692, 
    -0.613363558449073, 0.5923325582000871, 0.5688813806131676, 
    2.4688366313495673, 5.723575587948337, 5.713758010538981, 
    1.664299519882338, 0.020652892095147226, 0.0009796390413583322, 
    -0.0030589063390821665, -0.006272862399943885, -0.7140947026232036, 
    -0.2672945524519644, -0.41659387763278544, 1.0311500249540513, 
    0.08527460206646856, 0.5084401919356025, 0.13339925832126573, 
    -0.043387370159833565, 0.7898178847313504, 0.31511030430467146, 
    2.483089175390479, 0.3077142609378895, -0.4144119397205984, 
    -0.23867194277482845, 0.290035961131112, 0.1002057298324203, 
    -0.6800156782142407, -1.889823407937037, -1.854006033223302, 
